digraph Tree {
node [shape=box, style="filled, rounded", color="black", fontname="helvetica"] ;
edge [fontname="helvetica"] ;
0 [label=<FATALITY_LOCATION_Permanent Home &le; 0.5<br/>squared_error = 519.652<br/>samples = 4709<br/>value = 46.981>, fillcolor="#f3c3a1"] ;
1 [label=<FATALITY_LOCATION_In Water &le; 0.5<br/>squared_error = 488.028<br/>samples = 4098<br/>value = 44.802>, fillcolor="#f3c6a5"] ;
0 -> 1 [labeldistance=2.5, labelangle=45, headlabel="True"] ;
2 [label=<CZ_TIMEZONE_MST-7 &le; 0.5<br/>squared_error = 491.015<br/>samples = 3265<br/>value = 46.678>, fillcolor="#f3c4a2"] ;
1 -> 2 ;
3 [label=<FATALITY_LOCATION_Vehicle/Towed Trailer &le; 0.5<br/>squared_error = 497.071<br/>samples = 2828<br/>value = 48.14>, fillcolor="#f2c29f"] ;
2 -> 3 ;
4 [label=<CZ_TYPE_Z &le; 0.5<br/>squared_error = 465.994<br/>samples = 1736<br/>value = 50.952>, fillcolor="#f2be99"] ;
3 -> 4 ;
5 [label=<END_DAY &le; 30.5<br/>squared_error = 473.689<br/>samples = 678<br/>value = 45.065>, fillcolor="#f3c6a5"] ;
4 -> 5 ;
6 [label=<FATALITY_LOCATION_School &le; 0.5<br/>squared_error = 460.523<br/>samples = 658<br/>value = 45.818>, fillcolor="#f3c5a3"] ;
5 -> 6 ;
7 [label=<Unnamed: 0 &le; 2213.5<br/>squared_error = 453.475<br/>samples = 653<br/>value = 46.101>, fillcolor="#f3c4a3"] ;
6 -> 7 ;
8 [label=<Unnamed: 0 &le; 178.0<br/>squared_error = 472.302<br/>samples = 221<br/>value = 42.195>, fillcolor="#f4c9ab"] ;
7 -> 8 ;
9 [label=<END_TIME &le; 1220.0<br/>squared_error = 262.41<br/>samples = 12<br/>value = 64.583>, fillcolor="#eead7e"] ;
8 -> 9 ;
10 [label=<WFO_FFC &le; 0.5<br/>squared_error = 132.25<br/>samples = 2<br/>value = 39.5>, fillcolor="#f5cdb0"] ;
9 -> 10 ;
11 [label=<squared_error = 0.0<br/>samples = 1<br/>value = 28.0>, fillcolor="#f8dbc7"] ;
10 -> 11 ;
12 [label=<squared_error = 0.0<br/>samples = 1<br/>value = 51.0>, fillcolor="#f2be99"] ;
10 -> 12 ;
13 [label=<SOURCE_County Official &le; 0.5<br/>squared_error = 137.44<br/>samples = 10<br/>value = 69.6>, fillcolor="#eda674"] ;
9 -> 13 ;
14 [label=<DAMAGE_PROPERTY &le; 71500000.0<br/>squared_error = 87.734<br/>samples = 8<br/>value = 73.625>, fillcolor="#eca16c"] ;
13 -> 14 ;
15 [label=<WFO_OUN &le; 0.5<br/>squared_error = 16.0<br/>samples = 2<br/>value = 83.0>, fillcolor="#e99559"] ;
14 -> 15 ;
16 [label=<squared_error = 0.0<br/>samples = 1<br/>value = 87.0>, fillcolor="#e89051"] ;
15 -> 16 ;
17 [label=<squared_error = 0.0<br/>samples = 1<br/>value = 79.0>, fillcolor="#ea9a61"] ;
15 -> 17 ;
18 [label=<FATALITY_ID &le; 20337.0<br/>squared_error = 72.583<br/>samples = 6<br/>value = 70.5>, fillcolor="#eca572"] ;
14 -> 18 ;
19 [label=<Unnamed: 0 &le; 113.5<br/>squared_error = 66.688<br/>samples = 4<br/>value = 74.25>, fillcolor="#eca06a"] ;
18 -> 19 ;
20 [label=<EVENT_ID &le; 435607.0<br/>squared_error = 42.25<br/>samples = 2<br/>value = 67.5>, fillcolor="#eda978"] ;
19 -> 20 ;
21 [label=<squared_error = 0.0<br/>samples = 1<br/>value = 74.0>, fillcolor="#eca16b"] ;
20 -> 21 ;
22 [label=<squared_error = 0.0<br/>samples = 1<br/>value = 61.0>, fillcolor="#efb185"] ;
20 -> 22 ;
23 [label=<squared_error = 0.0<br/>samples = 2<br/>value = 81.0>, fillcolor="#ea985d"] ;
19 -> 23 ;
24 [label=<squared_error = 0.0<br/>samples = 2<br/>value = 63.0>, fillcolor="#eeaf81"] ;
18 -> 24 ;
25 [label=<STATE_WEST VIRGINIA &le; 0.5<br/>squared_error = 12.25<br/>samples = 2<br/>value = 53.5>, fillcolor="#f1bb94"] ;
13 -> 25 ;
26 [label=<squared_error = 0.0<br/>samples = 1<br/>value = 57.0>, fillcolor="#f0b68d"] ;
25 -> 26 ;
27 [label=<squared_error = 0.0<br/>samples = 1<br/>value = 50.0>, fillcolor="#f2bf9b"] ;
25 -> 27 ;
28 [label=<WFO_MEG &le; 0.5<br/>squared_error = 453.92<br/>samples = 209<br/>value = 40.909>, fillcolor="#f4cbad"] ;
8 -> 28 ;
29 [label=<FAT_YEARMONTH &le; 201505.5<br/>squared_error = 451.894<br/>samples = 200<br/>value = 40.035>, fillcolor="#f4ccaf"] ;
28 -> 29 ;
30 [label=<STATE_INDIANA &le; 0.5<br/>squared_error = 450.99<br/>samples = 138<br/>value = 43.232>, fillcolor="#f4c8a9"] ;
29 -> 30 ;
31 [label=<EVENT_ID &le; 566790.5<br/>squared_error = 439.34<br/>samples = 135<br/>value = 43.874>, fillcolor="#f3c7a7"] ;
30 -> 31 ;
32 [label=<Unnamed: 0 &le; 1137.5<br/>squared_error = 444.323<br/>samples = 121<br/>value = 42.256>, fillcolor="#f4c9aa"] ;
31 -> 32 ;
33 [label=<INJURIES_DIRECT &le; 108.5<br/>squared_error = 439.898<br/>samples = 111<br/>value = 43.667>, fillcolor="#f4c7a8"] ;
32 -> 33 ;
34 [label=<FATALITY_ID &le; 20990.0<br/>squared_error = 418.433<br/>samples = 107<br/>value = 44.561>, fillcolor="#f3c6a6"] ;
33 -> 34 ;
35 [label=<FATALITY_LOCATION_Mobile/Trailer Home &le; 0.5<br/>squared_error = 475.297<br/>samples = 21<br/>value = 35.524>, fillcolor="#f6d2b8"] ;
34 -> 35 ;
36 [label=<SOURCE_State Official &le; 0.5<br/>squared_error = 328.864<br/>samples = 19<br/>value = 31.368>, fillcolor="#f7d7c0"] ;
35 -> 36 ;
37 [label=<EVENT_TYPE_Heavy Rain &le; 0.5<br/>squared_error = 230.321<br/>samples = 18<br/>value = 28.889>, fillcolor="#f7dac5"] ;
36 -> 37 ;
38 [label=<CZ_TIMEZONE_PST-8 &le; 0.5<br/>squared_error = 171.398<br/>samples = 17<br/>value = 26.882>, fillcolor="#f8ddc9"] ;
37 -> 38 ;
39 [label=<CZ_FIPS &le; 26.0<br/>squared_error = 120.196<br/>samples = 15<br/>value = 23.933>, fillcolor="#f9e1cf"] ;
38 -> 39 ;
40 [label=<FATALITY_ID &le; 20485.0<br/>squared_error = 11.25<br/>samples = 4<br/>value = 35.5>, fillcolor="#f6d2b8"] ;
39 -> 40 ;
41 [label=<squared_error = 0.0<br/>samples = 1<br/>value = 41.0>, fillcolor="#f4cbad"] ;
40 -> 41 ;
42 [label=<CZ_NAME_ANGELINA &le; 0.5<br/>squared_error = 1.556<br/>samples = 3<br/>value = 33.667>, fillcolor="#f6d4bc"] ;
40 -> 42 ;
43 [label=<FATALITY_LOCATION_Heavy Equipment/Construction &le; 0.5<br/>squared_error = 0.25<br/>samples = 2<br/>value = 34.5>, fillcolor="#f6d3ba"] ;
42 -> 43 ;
44 [label=<squared_error = 0.0<br/>samples = 1<br/>value = 34.0>, fillcolor="#f6d4bb"] ;
43 -> 44 ;
45 [label=<squared_error = 0.0<br/>samples = 1<br/>value = 35.0>, fillcolor="#f6d2b9"] ;
43 -> 45 ;
46 [label=<squared_error = 0.0<br/>samples = 1<br/>value = 32.0>, fillcolor="#f7d6bf"] ;
42 -> 46 ;
47 [label=<END_TIME &le; 1468.5<br/>squared_error = 93.471<br/>samples = 11<br/>value = 19.727>, fillcolor="#fae6d8"] ;
39 -> 47 ;
48 [label=<MONTH_NAME_July &le; 0.5<br/>squared_error = 56.667<br/>samples = 6<br/>value = 26.0>, fillcolor="#f8decb"] ;
47 -> 48 ;
49 [label=<EVENT_TYPE_Lightning &le; 0.5<br/>squared_error = 16.25<br/>samples = 4<br/>value = 30.5>, fillcolor="#f7d8c2"] ;
48 -> 49 ;
50 [label=<WFO_GSP &le; 0.5<br/>squared_error = 4.0<br/>samples = 2<br/>value = 34.0>, fillcolor="#f6d4bb"] ;
49 -> 50 ;
51 [label=<squared_error = 0.0<br/>samples = 1<br/>value = 36.0>, fillcolor="#f6d1b7"] ;
50 -> 51 ;
52 [label=<squared_error = 0.0<br/>samples = 1<br/>value = 32.0>, fillcolor="#f7d6bf"] ;
50 -> 52 ;
53 [label=<Unnamed: 0 &le; 321.5<br/>squared_error = 4.0<br/>samples = 2<br/>value = 27.0>, fillcolor="#f8ddc9"] ;
49 -> 53 ;
54 [label=<squared_error = 0.0<br/>samples = 1<br/>value = 25.0>, fillcolor="#f8dfcd"] ;
53 -> 54 ;
55 [label=<squared_error = 0.0<br/>samples = 1<br/>value = 29.0>, fillcolor="#f7dac5"] ;
53 -> 55 ;
56 [label=<FAT_DAY &le; 16.0<br/>squared_error = 16.0<br/>samples = 2<br/>value = 17.0>, fillcolor="#fbe9dd"] ;
48 -> 56 ;
57 [label=<squared_error = 0.0<br/>samples = 1<br/>value = 13.0>, fillcolor="#fceee5"] ;
56 -> 57 ;
58 [label=<squared_error = 0.0<br/>samples = 1<br/>value = 21.0>, fillcolor="#f9e4d5"] ;
56 -> 58 ;
59 [label=<FATALITY_SEX_M &le; 0.5<br/>squared_error = 33.76<br/>samples = 5<br/>value = 12.2>, fillcolor="#fcefe7"] ;
47 -> 59 ;
60 [label=<MONTH_NAME_May &le; 0.5<br/>squared_error = 2.25<br/>samples = 2<br/>value = 18.5>, fillcolor="#fae7da"] ;
59 -> 60 ;
61 [label=<squared_error = 0.0<br/>samples = 1<br/>value = 20.0>, fillcolor="#fae6d7"] ;
60 -> 61 ;
62 [label=<squared_error = 0.0<br/>samples = 1<br/>value = 17.0>, fillcolor="#fbe9dd"] ;
60 -> 62 ;
63 [label=<FATALITY_LOCATION_Outside/Open Areas &le; 0.5<br/>squared_error = 10.667<br/>samples = 3<br/>value = 8.0>, fillcolor="#fdf5ef"] ;
59 -> 63 ;
64 [label=<EVENT_ID &le; 471420.0<br/>squared_error = 4.0<br/>samples = 2<br/>value = 10.0>, fillcolor="#fcf2eb"] ;
63 -> 64 ;
65 [label=<squared_error = 0.0<br/>samples = 1<br/>value = 12.0>, fillcolor="#fcf0e7"] ;
64 -> 65 ;
66 [label=<squared_error = 0.0<br/>samples = 1<br/>value = 8.0>, fillcolor="#fdf5ef"] ;
64 -> 66 ;
67 [label=<squared_error = 0.0<br/>samples = 1<br/>value = 4.0>, fillcolor="#fefaf7"] ;
63 -> 67 ;
68 [label=<EVENT_TYPE_Lightning &le; 0.5<br/>squared_error = 1.0<br/>samples = 2<br/>value = 49.0>, fillcolor="#f2c19d"] ;
38 -> 68 ;
69 [label=<squared_error = 0.0<br/>samples = 1<br/>value = 48.0>, fillcolor="#f2c29f"] ;
68 -> 69 ;
70 [label=<squared_error = 0.0<br/>samples = 1<br/>value = 50.0>, fillcolor="#f2bf9b"] ;
68 -> 70 ;
71 [label=<squared_error = 0.0<br/>samples = 1<br/>value = 63.0>, fillcolor="#eeaf81"] ;
37 -> 71 ;
72 [label=<squared_error = 0.0<br/>samples = 1<br/>value = 76.0>, fillcolor="#eb9e67"] ;
36 -> 72 ;
73 [label=<STATE_NEW YORK &le; 0.5<br/>squared_error = 144.0<br/>samples = 2<br/>value = 75.0>, fillcolor="#eba069"] ;
35 -> 73 ;
74 [label=<squared_error = 0.0<br/>samples = 1<br/>value = 63.0>, fillcolor="#eeaf81"] ;
73 -> 74 ;
75 [label=<squared_error = 0.0<br/>samples = 1<br/>value = 87.0>, fillcolor="#e89051"] ;
73 -> 75 ;
76 [label=<FATALITY_ID &le; 22587.0<br/>squared_error = 379.737<br/>samples = 86<br/>value = 46.767>, fillcolor="#f3c3a1"] ;
34 -> 76 ;
77 [label=<STATE_FLORIDA &le; 0.5<br/>squared_error = 180.722<br/>samples = 23<br/>value = 55.87>, fillcolor="#f0b88f"] ;
76 -> 77 ;
78 [label=<EVENT_TYPE_Heavy Rain &le; 0.5<br/>squared_error = 126.059<br/>samples = 21<br/>value = 53.524>, fillcolor="#f1bb94"] ;
77 -> 78 ;
79 [label=<Unnamed: 0 &le; 1036.5<br/>squared_error = 89.647<br/>samples = 20<br/>value = 54.95>, fillcolor="#f1b991"] ;
78 -> 79 ;
80 [label=<FATALITY_ID &le; 22585.5<br/>squared_error = 74.116<br/>samples = 15<br/>value = 57.133>, fillcolor="#f0b68d"] ;
79 -> 80 ;
81 [label=<FATALITY_ID &le; 22584.5<br/>squared_error = 64.694<br/>samples = 14<br/>value = 56.143>, fillcolor="#f0b88f"] ;
80 -> 81 ;
82 [label=<FATALITY_ID &le; 22581.5<br/>squared_error = 50.675<br/>samples = 13<br/>value = 57.308>, fillcolor="#f0b68c"] ;
81 -> 82 ;
83 [label=<EVENT_ID &le; 481074.0<br/>squared_error = 37.157<br/>samples = 11<br/>value = 55.455>, fillcolor="#f0b890"] ;
82 -> 83 ;
84 [label=<FATALITY_SEX_F &le; 0.5<br/>squared_error = 13.688<br/>samples = 4<br/>value = 61.25>, fillcolor="#efb184"] ;
83 -> 84 ;
85 [label=<BEGIN_TIME &le; 1876.0<br/>squared_error = 4.0<br/>samples = 2<br/>value = 58.0>, fillcolor="#f0b58b"] ;
84 -> 85 ;
86 [label=<squared_error = 0.0<br/>samples = 1<br/>value = 56.0>, fillcolor="#f0b88f"] ;
85 -> 86 ;
87 [label=<squared_error = 0.0<br/>samples = 1<br/>value = 60.0>, fillcolor="#efb387"] ;
85 -> 87 ;
88 [label=<EVENT_ID &le; 475758.0<br/>squared_error = 2.25<br/>samples = 2<br/>value = 64.5>, fillcolor="#eead7e"] ;
84 -> 88 ;
89 [label=<squared_error = 0.0<br/>samples = 1<br/>value = 66.0>, fillcolor="#eeab7b"] ;
88 -> 89 ;
90 [label=<squared_error = 0.0<br/>samples = 1<br/>value = 63.0>, fillcolor="#eeaf81"] ;
88 -> 90 ;
91 [label=<END_TIME &le; 1686.0<br/>squared_error = 20.408<br/>samples = 7<br/>value = 52.143>, fillcolor="#f1bd97"] ;
83 -> 91 ;
92 [label=<FATALITY_ID &le; 22580.5<br/>squared_error = 10.0<br/>samples = 5<br/>value = 50.0>, fillcolor="#f2bf9b"] ;
91 -> 92 ;
93 [label=<CZ_TIMEZONE_PST-8 &le; 0.5<br/>squared_error = 4.688<br/>samples = 4<br/>value = 48.75>, fillcolor="#f2c19e"] ;
92 -> 93 ;
94 [label=<squared_error = 0.0<br/>samples = 3<br/>value = 50.0>, fillcolor="#f2bf9b"] ;
93 -> 94 ;
95 [label=<squared_error = 0.0<br/>samples = 1<br/>value = 45.0>, fillcolor="#f3c6a5"] ;
93 -> 95 ;
96 [label=<squared_error = 0.0<br/>samples = 1<br/>value = 55.0>, fillcolor="#f1b991"] ;
92 -> 96 ;
97 [label=<Unnamed: 0 &le; 840.0<br/>squared_error = 6.25<br/>samples = 2<br/>value = 57.5>, fillcolor="#f0b68c"] ;
91 -> 97 ;
98 [label=<squared_error = 0.0<br/>samples = 1<br/>value = 55.0>, fillcolor="#f1b991"] ;
97 -> 98 ;
99 [label=<squared_error = 0.0<br/>samples = 1<br/>value = 60.0>, fillcolor="#efb387"] ;
97 -> 99 ;
100 [label=<FATALITY_SEX_F &le; 0.5<br/>squared_error = 2.25<br/>samples = 2<br/>value = 67.5>, fillcolor="#eda978"] ;
82 -> 100 ;
101 [label=<squared_error = 0.0<br/>samples = 1<br/>value = 66.0>, fillcolor="#eeab7b"] ;
100 -> 101 ;
102 [label=<squared_error = 0.0<br/>samples = 1<br/>value = 69.0>, fillcolor="#eda775"] ;
100 -> 102 ;
103 [label=<squared_error = 0.0<br/>samples = 1<br/>value = 41.0>, fillcolor="#f4cbad"] ;
81 -> 103 ;
104 [label=<squared_error = 0.0<br/>samples = 1<br/>value = 71.0>, fillcolor="#eca571"] ;
80 -> 104 ;
105 [label=<FATALITY_ID &le; 21861.5<br/>squared_error = 79.04<br/>samples = 5<br/>value = 48.4>, fillcolor="#f2c19e"] ;
79 -> 105 ;
106 [label=<SOURCE_NWS Storm Survey &le; 0.5<br/>squared_error = 16.889<br/>samples = 3<br/>value = 54.667>, fillcolor="#f1b992"] ;
105 -> 106 ;
107 [label=<MONTH_NAME_February &le; 0.5<br/>squared_error = 4.0<br/>samples = 2<br/>value = 52.0>, fillcolor="#f1bd97"] ;
106 -> 107 ;
108 [label=<squared_error = 0.0<br/>samples = 1<br/>value = 50.0>, fillcolor="#f2bf9b"] ;
107 -> 108 ;
109 [label=<squared_error = 0.0<br/>samples = 1<br/>value = 54.0>, fillcolor="#f1ba93"] ;
107 -> 109 ;
110 [label=<squared_error = 0.0<br/>samples = 1<br/>value = 60.0>, fillcolor="#efb387"] ;
106 -> 110 ;
111 [label=<STATE_TENNESSEE &le; 0.5<br/>squared_error = 25.0<br/>samples = 2<br/>value = 39.0>, fillcolor="#f5cdb1"] ;
105 -> 111 ;
112 [label=<squared_error = 0.0<br/>samples = 1<br/>value = 34.0>, fillcolor="#f6d4bb"] ;
111 -> 112 ;
113 [label=<squared_error = 0.0<br/>samples = 1<br/>value = 44.0>, fillcolor="#f3c7a7"] ;
111 -> 113 ;
114 [label=<squared_error = 0.0<br/>samples = 1<br/>value = 25.0>, fillcolor="#f8dfcd"] ;
78 -> 114 ;
115 [label=<END_TIME &le; 1307.5<br/>squared_error = 90.25<br/>samples = 2<br/>value = 80.5>, fillcolor="#ea995e"] ;
77 -> 115 ;
116 [label=<squared_error = 0.0<br/>samples = 1<br/>value = 90.0>, fillcolor="#e78c4b"] ;
115 -> 116 ;
117 [label=<squared_error = 0.0<br/>samples = 1<br/>value = 71.0>, fillcolor="#eca571"] ;
115 -> 117 ;
118 [label=<CZ_FIPS &le; 20.0<br/>squared_error = 411.104<br/>samples = 63<br/>value = 43.444>, fillcolor="#f4c8a8"] ;
76 -> 118 ;
119 [label=<EPISODE_ID &le; 85743.5<br/>squared_error = 22.25<br/>samples = 4<br/>value = 62.5>, fillcolor="#efaf82"] ;
118 -> 119 ;
120 [label=<squared_error = 0.0<br/>samples = 1<br/>value = 56.0>, fillcolor="#f0b88f"] ;
119 -> 120 ;
121 [label=<FATALITY_ID &le; 23074.5<br/>squared_error = 10.889<br/>samples = 3<br/>value = 64.667>, fillcolor="#eead7e"] ;
119 -> 121 ;
122 [label=<STATE_MASSACHUSETTS &le; 0.5<br/>squared_error = 2.25<br/>samples = 2<br/>value = 62.5>, fillcolor="#efaf82"] ;
121 -> 122 ;
123 [label=<squared_error = 0.0<br/>samples = 1<br/>value = 64.0>, fillcolor="#eeae7f"] ;
122 -> 123 ;
124 [label=<squared_error = 0.0<br/>samples = 1<br/>value = 61.0>, fillcolor="#efb185"] ;
122 -> 124 ;
125 [label=<squared_error = 0.0<br/>samples = 1<br/>value = 69.0>, fillcolor="#eda775"] ;
121 -> 125 ;
126 [label=<CZ_NAME_STANTON &le; 0.5<br/>squared_error = 411.18<br/>samples = 59<br/>value = 42.153>, fillcolor="#f4c9ab"] ;
118 -> 126 ;
127 [label=<END_DAY &le; 4.0<br/>squared_error = 394.061<br/>samples = 58<br/>value = 42.793>, fillcolor="#f4c9a9"] ;
126 -> 127 ;
128 [label=<FAT_DAY &le; 2.0<br/>squared_error = 82.889<br/>samples = 3<br/>value = 22.667>, fillcolor="#f9e2d2"] ;
127 -> 128 ;
129 [label=<squared_error = 0.0<br/>samples = 1<br/>value = 10.0>, fillcolor="#fcf2eb"] ;
128 -> 129 ;
130 [label=<FAT_DAY &le; 4.5<br/>squared_error = 4.0<br/>samples = 2<br/>value = 29.0>, fillcolor="#f7dac5"] ;
128 -> 130 ;
131 [label=<squared_error = 0.0<br/>samples = 1<br/>value = 27.0>, fillcolor="#f8ddc9"] ;
130 -> 131 ;
132 [label=<squared_error = 0.0<br/>samples = 1<br/>value = 31.0>, fillcolor="#f7d8c1"] ;
130 -> 132 ;
133 [label=<MONTH_NAME_June &le; 0.5<br/>squared_error = 387.734<br/>samples = 55<br/>value = 43.891>, fillcolor="#f3c7a7"] ;
127 -> 133 ;
134 [label=<FATALITY_LOCATION_Outside/Open Areas &le; 0.5<br/>squared_error = 395.832<br/>samples = 48<br/>value = 42.042>, fillcolor="#f4c9ab"] ;
133 -> 134 ;
135 [label=<Unnamed: 0 &le; 626.5<br/>squared_error = 397.268<br/>samples = 43<br/>value = 43.814>, fillcolor="#f3c7a7"] ;
134 -> 135 ;
136 [label=<FATALITY_ID &le; 22600.5<br/>squared_error = 511.694<br/>samples = 14<br/>value = 37.143>, fillcolor="#f5d0b5"] ;
135 -> 136 ;
137 [label=<FATALITY_ID &le; 22596.5<br/>squared_error = 523.835<br/>samples = 11<br/>value = 42.273>, fillcolor="#f4c9aa"] ;
136 -> 137 ;
138 [label=<FATALITY_ID &le; 22595.5<br/>squared_error = 504.234<br/>samples = 8<br/>value = 34.625>, fillcolor="#f6d3ba"] ;
137 -> 138 ;
139 [label=<FATALITY_SEX_M &le; 0.5<br/>squared_error = 380.531<br/>samples = 7<br/>value = 39.571>, fillcolor="#f5cdb0"] ;
138 -> 139 ;
140 [label=<FATALITY_ID &le; 22594.5<br/>squared_error = 210.889<br/>samples = 3<br/>value = 51.333>, fillcolor="#f2be98"] ;
139 -> 140 ;
141 [label=<FATALITY_ID &le; 22592.5<br/>squared_error = 196.0<br/>samples = 2<br/>value = 45.0>, fillcolor="#f3c6a5"] ;
140 -> 141 ;
142 [label=<squared_error = 0.0<br/>samples = 1<br/>value = 59.0>, fillcolor="#f0b489"] ;
141 -> 142 ;
143 [label=<squared_error = 0.0<br/>samples = 1<br/>value = 31.0>, fillcolor="#f7d8c1"] ;
141 -> 143 ;
144 [label=<squared_error = 0.0<br/>samples = 1<br/>value = 64.0>, fillcolor="#eeae7f"] ;
140 -> 144 ;
145 [label=<Unnamed: 0 &le; 610.5<br/>squared_error = 326.188<br/>samples = 4<br/>value = 30.75>, fillcolor="#f7d8c2"] ;
139 -> 145 ;
146 [label=<FATALITY_ID &le; 22588.5<br/>squared_error = 1.0<br/>samples = 2<br/>value = 48.0>, fillcolor="#f2c29f"] ;
145 -> 146 ;
147 [label=<squared_error = 0.0<br/>samples = 1<br/>value = 47.0>, fillcolor="#f3c3a1"] ;
146 -> 147 ;
148 [label=<squared_error = 0.0<br/>samples = 1<br/>value = 49.0>, fillcolor="#f2c19d"] ;
146 -> 148 ;
149 [label=<FATALITY_ID &le; 22591.0<br/>squared_error = 56.25<br/>samples = 2<br/>value = 13.5>, fillcolor="#fbeee4"] ;
145 -> 149 ;
150 [label=<squared_error = 0.0<br/>samples = 1<br/>value = 21.0>, fillcolor="#f9e4d5"] ;
149 -> 150 ;
151 [label=<squared_error = 0.0<br/>samples = 1<br/>value = 6.0>, fillcolor="#fdf7f3"] ;
149 -> 151 ;
152 [label=<squared_error = 0.0<br/>samples = 1<br/>value = 0.0>, fillcolor="#ffffff"] ;
138 -> 152 ;
153 [label=<FATALITY_ID &le; 22599.5<br/>squared_error = 4.222<br/>samples = 3<br/>value = 62.667>, fillcolor="#efaf82"] ;
137 -> 153 ;
154 [label=<Unnamed: 0 &le; 619.0<br/>squared_error = 1.0<br/>samples = 2<br/>value = 64.0>, fillcolor="#eeae7f"] ;
153 -> 154 ;
155 [label=<squared_error = 0.0<br/>samples = 1<br/>value = 63.0>, fillcolor="#eeaf81"] ;
154 -> 155 ;
156 [label=<squared_error = 0.0<br/>samples = 1<br/>value = 65.0>, fillcolor="#eeac7d"] ;
154 -> 156 ;
157 [label=<squared_error = 0.0<br/>samples = 1<br/>value = 60.0>, fillcolor="#efb387"] ;
153 -> 157 ;
158 [label=<Unnamed: 0 &le; 625.0<br/>squared_error = 16.889<br/>samples = 3<br/>value = 18.333>, fillcolor="#fae8da"] ;
136 -> 158 ;
159 [label=<Unnamed: 0 &le; 623.0<br/>squared_error = 4.0<br/>samples = 2<br/>value = 21.0>, fillcolor="#f9e4d5"] ;
158 -> 159 ;
160 [label=<squared_error = 0.0<br/>samples = 1<br/>value = 23.0>, fillcolor="#f9e2d1"] ;
159 -> 160 ;
161 [label=<squared_error = 0.0<br/>samples = 1<br/>value = 19.0>, fillcolor="#fae7d9"] ;
159 -> 161 ;
162 [label=<squared_error = 0.0<br/>samples = 1<br/>value = 13.0>, fillcolor="#fceee5"] ;
158 -> 162 ;
163 [label=<FATALITY_ID &le; 22614.5<br/>squared_error = 310.171<br/>samples = 29<br/>value = 47.034>, fillcolor="#f3c3a1"] ;
135 -> 163 ;
164 [label=<Unnamed: 0 &le; 628.5<br/>squared_error = 200.0<br/>samples = 7<br/>value = 60.0>, fillcolor="#efb387"] ;
163 -> 164 ;
165 [label=<FATALITY_ID &le; 22606.5<br/>squared_error = 16.0<br/>samples = 2<br/>value = 71.0>, fillcolor="#eca571"] ;
164 -> 165 ;
166 [label=<squared_error = 0.0<br/>samples = 1<br/>value = 67.0>, fillcolor="#edaa79"] ;
165 -> 166 ;
167 [label=<squared_error = 0.0<br/>samples = 1<br/>value = 75.0>, fillcolor="#eba069"] ;
165 -> 167 ;
168 [label=<Unnamed: 0 &le; 631.0<br/>squared_error = 205.84<br/>samples = 5<br/>value = 55.6>, fillcolor="#f0b890"] ;
164 -> 168 ;
169 [label=<Unnamed: 0 &le; 629.5<br/>squared_error = 240.25<br/>samples = 2<br/>value = 45.5>, fillcolor="#f3c5a4"] ;
168 -> 169 ;
170 [label=<squared_error = 0.0<br/>samples = 1<br/>value = 61.0>, fillcolor="#efb185"] ;
169 -> 170 ;
171 [label=<squared_error = 0.0<br/>samples = 1<br/>value = 30.0>, fillcolor="#f7d9c3"] ;
169 -> 171 ;
172 [label=<FATALITY_ID &le; 22613.0<br/>squared_error = 69.556<br/>samples = 3<br/>value = 62.333>, fillcolor="#efb082"] ;
168 -> 172 ;
173 [label=<Unnamed: 0 &le; 632.5<br/>squared_error = 64.0<br/>samples = 2<br/>value = 66.0>, fillcolor="#eeab7b"] ;
172 -> 173 ;
174 [label=<squared_error = 0.0<br/>samples = 1<br/>value = 58.0>, fillcolor="#f0b58b"] ;
173 -> 174 ;
175 [label=<squared_error = 0.0<br/>samples = 1<br/>value = 74.0>, fillcolor="#eca16b"] ;
173 -> 175 ;
176 [label=<squared_error = 0.0<br/>samples = 1<br/>value = 55.0>, fillcolor="#f1b991"] ;
172 -> 176 ;
177 [label=<FATALITY_SEX_M &le; 0.5<br/>squared_error = 274.719<br/>samples = 22<br/>value = 42.909>, fillcolor="#f4c8a9"] ;
163 -> 177 ;
178 [label=<FATALITY_ID &le; 29697.5<br/>squared_error = 157.455<br/>samples = 11<br/>value = 50.0>, fillcolor="#f2bf9b"] ;
177 -> 178 ;
179 [label=<Unnamed: 0 &le; 639.5<br/>squared_error = 129.2<br/>samples = 10<br/>value = 48.0>, fillcolor="#f2c29f"] ;
178 -> 179 ;
180 [label=<squared_error = 0.0<br/>samples = 1<br/>value = 64.0>, fillcolor="#eeae7f"] ;
179 -> 180 ;
181 [label=<FATALITY_LOCATION_Business &le; 0.5<br/>squared_error = 111.951<br/>samples = 9<br/>value = 46.222>, fillcolor="#f3c4a3"] ;
179 -> 181 ;
182 [label=<INJURIES_DIRECT &le; 31.0<br/>squared_error = 101.359<br/>samples = 8<br/>value = 47.875>, fillcolor="#f2c29f"] ;
181 -> 182 ;
183 [label=<EVENT_TYPE_Tornado &le; 0.5<br/>squared_error = 28.531<br/>samples = 7<br/>value = 44.571>, fillcolor="#f3c6a6"] ;
182 -> 183 ;
184 [label=<FATALITY_ID &le; 22620.5<br/>squared_error = 9.44<br/>samples = 5<br/>value = 47.4>, fillcolor="#f3c3a0"] ;
183 -> 184 ;
185 [label=<squared_error = 0.0<br/>samples = 1<br/>value = 53.0>, fillcolor="#f1bc95"] ;
184 -> 185 ;
186 [label=<EVENT_TYPE_Lightning &le; 0.5<br/>squared_error = 2.0<br/>samples = 4<br/>value = 46.0>, fillcolor="#f3c4a3"] ;
184 -> 186 ;
187 [label=<EPISODE_ID &le; 87164.5<br/>squared_error = 0.889<br/>samples = 3<br/>value = 45.333>, fillcolor="#f3c5a4"] ;
186 -> 187 ;
188 [label=<squared_error = 0.0<br/>samples = 1<br/>value = 44.0>, fillcolor="#f3c7a7"] ;
187 -> 188 ;
189 [label=<squared_error = 0.0<br/>samples = 2<br/>value = 46.0>, fillcolor="#f3c4a3"] ;
187 -> 189 ;
190 [label=<squared_error = 0.0<br/>samples = 1<br/>value = 48.0>, fillcolor="#f2c29f"] ;
186 -> 190 ;
191 [label=<END_TIME &le; 1666.0<br/>squared_error = 6.25<br/>samples = 2<br/>value = 37.5>, fillcolor="#f5cfb4"] ;
183 -> 191 ;
192 [label=<squared_error = 0.0<br/>samples = 1<br/>value = 40.0>, fillcolor="#f4ccaf"] ;
191 -> 192 ;
193 [label=<squared_error = 0.0<br/>samples = 1<br/>value = 35.0>, fillcolor="#f6d2b9"] ;
191 -> 193 ;
194 [label=<squared_error = 0.0<br/>samples = 1<br/>value = 71.0>, fillcolor="#eca571"] ;
182 -> 194 ;
195 [label=<squared_error = 0.0<br/>samples = 1<br/>value = 33.0>, fillcolor="#f6d5bd"] ;
181 -> 195 ;
196 [label=<squared_error = 0.0<br/>samples = 1<br/>value = 70.0>, fillcolor="#eda673"] ;
178 -> 196 ;
197 [label=<Unnamed: 0 &le; 639.5<br/>squared_error = 291.421<br/>samples = 11<br/>value = 35.818>, fillcolor="#f6d1b7"] ;
177 -> 197 ;
198 [label=<FATALITY_ID &le; 22617.0<br/>squared_error = 427.556<br/>samples = 3<br/>value = 23.333>, fillcolor="#f9e1d0"] ;
197 -> 198 ;
199 [label=<Unnamed: 0 &le; 636.5<br/>squared_error = 361.0<br/>samples = 2<br/>value = 33.0>, fillcolor="#f6d5bd"] ;
198 -> 199 ;
200 [label=<squared_error = 0.0<br/>samples = 1<br/>value = 14.0>, fillcolor="#fbede3"] ;
199 -> 200 ;
201 [label=<squared_error = 0.0<br/>samples = 1<br/>value = 52.0>, fillcolor="#f1bd97"] ;
199 -> 201 ;
202 [label=<squared_error = 0.0<br/>samples = 1<br/>value = 4.0>, fillcolor="#fefaf7"] ;
198 -> 202 ;
203 [label=<BEGIN_TIME &le; 965.0<br/>squared_error = 160.0<br/>samples = 8<br/>value = 40.5>, fillcolor="#f4cbae"] ;
197 -> 203 ;
204 [label=<Unnamed: 0 &le; 772.5<br/>squared_error = 153.188<br/>samples = 4<br/>value = 32.75>, fillcolor="#f6d5bd"] ;
203 -> 204 ;
205 [label=<CZ_TIMEZONE_EST-5 &le; 0.5<br/>squared_error = 64.222<br/>samples = 3<br/>value = 38.667>, fillcolor="#f5ceb2"] ;
204 -> 205 ;
206 [label=<squared_error = 0.0<br/>samples = 2<br/>value = 33.0>, fillcolor="#f6d5bd"] ;
205 -> 206 ;
207 [label=<squared_error = 0.0<br/>samples = 1<br/>value = 50.0>, fillcolor="#f2bf9b"] ;
205 -> 207 ;
208 [label=<squared_error = 0.0<br/>samples = 1<br/>value = 15.0>, fillcolor="#fbece1"] ;
204 -> 208 ;
209 [label=<END_TIME &le; 1478.5<br/>squared_error = 46.688<br/>samples = 4<br/>value = 48.25>, fillcolor="#f2c29e"] ;
203 -> 209 ;
210 [label=<MONTH_NAME_September &le; 0.5<br/>squared_error = 6.25<br/>samples = 2<br/>value = 54.5>, fillcolor="#f1ba92"] ;
209 -> 210 ;
211 [label=<squared_error = 0.0<br/>samples = 1<br/>value = 52.0>, fillcolor="#f1bd97"] ;
210 -> 211 ;
212 [label=<squared_error = 0.0<br/>samples = 1<br/>value = 57.0>, fillcolor="#f0b68d"] ;
210 -> 212 ;
213 [label=<STATE_FLORIDA &le; 0.5<br/>squared_error = 9.0<br/>samples = 2<br/>value = 42.0>, fillcolor="#f4caab"] ;
209 -> 213 ;
214 [label=<squared_error = 0.0<br/>samples = 1<br/>value = 45.0>, fillcolor="#f3c6a5"] ;
213 -> 214 ;
215 [label=<squared_error = 0.0<br/>samples = 1<br/>value = 39.0>, fillcolor="#f5cdb1"] ;
213 -> 215 ;
216 [label=<Unnamed: 0 &le; 772.0<br/>squared_error = 124.16<br/>samples = 5<br/>value = 26.8>, fillcolor="#f8ddc9"] ;
134 -> 216 ;
217 [label=<EVENT_TYPE_Flash Flood &le; 0.5<br/>squared_error = 50.667<br/>samples = 3<br/>value = 19.0>, fillcolor="#fae7d9"] ;
216 -> 217 ;
218 [label=<FATALITY_SEX_M &le; 0.5<br/>squared_error = 1.0<br/>samples = 2<br/>value = 24.0>, fillcolor="#f9e0cf"] ;
217 -> 218 ;
219 [label=<squared_error = 0.0<br/>samples = 1<br/>value = 23.0>, fillcolor="#f9e2d1"] ;
218 -> 219 ;
220 [label=<squared_error = 0.0<br/>samples = 1<br/>value = 25.0>, fillcolor="#f8dfcd"] ;
218 -> 220 ;
221 [label=<squared_error = 0.0<br/>samples = 1<br/>value = 9.0>, fillcolor="#fdf4ed"] ;
217 -> 221 ;
222 [label=<DAMAGE_PROPERTY &le; 75000000.0<br/>squared_error = 6.25<br/>samples = 2<br/>value = 38.5>, fillcolor="#f5ceb2"] ;
216 -> 222 ;
223 [label=<squared_error = 0.0<br/>samples = 1<br/>value = 41.0>, fillcolor="#f4cbad"] ;
222 -> 223 ;
224 [label=<squared_error = 0.0<br/>samples = 1<br/>value = 36.0>, fillcolor="#f6d1b7"] ;
222 -> 224 ;
225 [label=<SOURCE_Public &le; 0.5<br/>squared_error = 147.959<br/>samples = 7<br/>value = 56.571>, fillcolor="#f0b78e"] ;
133 -> 225 ;
226 [label=<EVENT_ID &le; 512775.0<br/>squared_error = 24.806<br/>samples = 6<br/>value = 61.167>, fillcolor="#efb185"] ;
225 -> 226 ;
227 [label=<squared_error = 0.0<br/>samples = 1<br/>value = 71.0>, fillcolor="#eca571"] ;
226 -> 227 ;
228 [label=<END_TIME &le; 1436.0<br/>squared_error = 6.56<br/>samples = 5<br/>value = 59.2>, fillcolor="#efb489"] ;
226 -> 228 ;
229 [label=<FAT_DAY &le; 12.5<br/>squared_error = 1.556<br/>samples = 3<br/>value = 57.333>, fillcolor="#f0b68c"] ;
228 -> 229 ;
230 [label=<squared_error = 0.0<br/>samples = 1<br/>value = 59.0>, fillcolor="#f0b489"] ;
229 -> 230 ;
231 [label=<END_DAY &le; 24.5<br/>squared_error = 0.25<br/>samples = 2<br/>value = 56.5>, fillcolor="#f0b78e"] ;
229 -> 231 ;
232 [label=<squared_error = 0.0<br/>samples = 1<br/>value = 56.0>, fillcolor="#f0b88f"] ;
231 -> 232 ;
233 [label=<squared_error = 0.0<br/>samples = 1<br/>value = 57.0>, fillcolor="#f0b68d"] ;
231 -> 233 ;
234 [label=<DEATHS_DIRECT &le; 0.5<br/>squared_error = 1.0<br/>samples = 2<br/>value = 62.0>, fillcolor="#efb083"] ;
228 -> 234 ;
235 [label=<squared_error = 0.0<br/>samples = 1<br/>value = 61.0>, fillcolor="#efb185"] ;
234 -> 235 ;
236 [label=<squared_error = 0.0<br/>samples = 1<br/>value = 63.0>, fillcolor="#eeaf81"] ;
234 -> 236 ;
237 [label=<squared_error = 0.0<br/>samples = 1<br/>value = 29.0>, fillcolor="#f7dac5"] ;
225 -> 237 ;
238 [label=<squared_error = 0.0<br/>samples = 1<br/>value = 5.0>, fillcolor="#fef9f5"] ;
126 -> 238 ;
239 [label=<FATALITY_ID &le; 21482.5<br/>squared_error = 420.688<br/>samples = 4<br/>value = 19.75>, fillcolor="#fae6d8"] ;
33 -> 239 ;
240 [label=<Unnamed: 0 &le; 185.5<br/>squared_error = 100.0<br/>samples = 2<br/>value = 39.0>, fillcolor="#f5cdb1"] ;
239 -> 240 ;
241 [label=<squared_error = 0.0<br/>samples = 1<br/>value = 29.0>, fillcolor="#f7dac5"] ;
240 -> 241 ;
242 [label=<squared_error = 0.0<br/>samples = 1<br/>value = 49.0>, fillcolor="#f2c19d"] ;
240 -> 242 ;
243 [label=<EVENT_ID &le; 478166.0<br/>squared_error = 0.25<br/>samples = 2<br/>value = 0.5>, fillcolor="#fffefe"] ;
239 -> 243 ;
244 [label=<squared_error = 0.0<br/>samples = 1<br/>value = 0.0>, fillcolor="#ffffff"] ;
243 -> 244 ;
245 [label=<squared_error = 0.0<br/>samples = 1<br/>value = 1.0>, fillcolor="#fffefd"] ;
243 -> 245 ;
246 [label=<INJURIES_DIRECT &le; 0.5<br/>squared_error = 226.24<br/>samples = 10<br/>value = 26.6>, fillcolor="#f8ddca"] ;
32 -> 246 ;
247 [label=<STATE_NEW YORK &le; 0.5<br/>squared_error = 2.25<br/>samples = 2<br/>value = 1.5>, fillcolor="#fffdfc"] ;
246 -> 247 ;
248 [label=<squared_error = 0.0<br/>samples = 1<br/>value = 3.0>, fillcolor="#fefbf9"] ;
247 -> 248 ;
249 [label=<squared_error = 0.0<br/>samples = 1<br/>value = 0.0>, fillcolor="#ffffff"] ;
247 -> 249 ;
250 [label=<FATALITY_ID &le; 23044.5<br/>squared_error = 85.359<br/>samples = 8<br/>value = 32.875>, fillcolor="#f6d5bd"] ;
246 -> 250 ;
251 [label=<squared_error = 0.0<br/>samples = 1<br/>value = 13.0>, fillcolor="#fceee5"] ;
250 -> 251 ;
252 [label=<WFO_SHV &le; 0.5<br/>squared_error = 33.061<br/>samples = 7<br/>value = 35.714>, fillcolor="#f6d2b8"] ;
250 -> 252 ;
253 [label=<CZ_FIPS &le; 137.0<br/>squared_error = 11.5<br/>samples = 4<br/>value = 40.0>, fillcolor="#f4ccaf"] ;
252 -> 253 ;
254 [label=<SOURCE_NWS Storm Survey &le; 0.5<br/>squared_error = 1.0<br/>samples = 2<br/>value = 37.0>, fillcolor="#f5d0b5"] ;
253 -> 254 ;
255 [label=<squared_error = 0.0<br/>samples = 1<br/>value = 36.0>, fillcolor="#f6d1b7"] ;
254 -> 255 ;
256 [label=<squared_error = 0.0<br/>samples = 1<br/>value = 38.0>, fillcolor="#f5cfb3"] ;
254 -> 256 ;
257 [label=<FATALITY_LOCATION_Camping &le; 0.5<br/>squared_error = 4.0<br/>samples = 2<br/>value = 43.0>, fillcolor="#f4c8a9"] ;
253 -> 257 ;
258 [label=<squared_error = 0.0<br/>samples = 1<br/>value = 41.0>, fillcolor="#f4cbad"] ;
257 -> 258 ;
259 [label=<squared_error = 0.0<br/>samples = 1<br/>value = 45.0>, fillcolor="#f3c6a5"] ;
257 -> 259 ;
260 [label=<STATE_TEXAS &le; 0.5<br/>squared_error = 4.667<br/>samples = 3<br/>value = 30.0>, fillcolor="#f7d9c3"] ;
252 -> 260 ;
261 [label=<FATALITY_ID &le; 28599.5<br/>squared_error = 0.25<br/>samples = 2<br/>value = 28.5>, fillcolor="#f8dbc6"] ;
260 -> 261 ;
262 [label=<squared_error = 0.0<br/>samples = 1<br/>value = 28.0>, fillcolor="#f8dbc7"] ;
261 -> 262 ;
263 [label=<squared_error = 0.0<br/>samples = 1<br/>value = 29.0>, fillcolor="#f7dac5"] ;
261 -> 263 ;
264 [label=<squared_error = 0.0<br/>samples = 1<br/>value = 33.0>, fillcolor="#f6d5bd"] ;
260 -> 264 ;
265 [label=<DAMAGE_PROPERTY &le; 1000.0<br/>squared_error = 178.122<br/>samples = 14<br/>value = 57.857>, fillcolor="#f0b58b"] ;
31 -> 265 ;
266 [label=<FAT_YEARMONTH &le; 201504.5<br/>squared_error = 105.359<br/>samples = 8<br/>value = 50.125>, fillcolor="#f2bf9b"] ;
265 -> 266 ;
267 [label=<BEGIN_TIME &le; 915.0<br/>squared_error = 31.5<br/>samples = 4<br/>value = 59.0>, fillcolor="#f0b489"] ;
266 -> 267 ;
268 [label=<FAT_YEARMONTH &le; 201454.5<br/>squared_error = 4.0<br/>samples = 2<br/>value = 54.0>, fillcolor="#f1ba93"] ;
267 -> 268 ;
269 [label=<squared_error = 0.0<br/>samples = 1<br/>value = 52.0>, fillcolor="#f1bd97"] ;
268 -> 269 ;
270 [label=<squared_error = 0.0<br/>samples = 1<br/>value = 56.0>, fillcolor="#f0b88f"] ;
268 -> 270 ;
271 [label=<FATALITY_ID &le; 28890.0<br/>squared_error = 9.0<br/>samples = 2<br/>value = 64.0>, fillcolor="#eeae7f"] ;
267 -> 271 ;
272 [label=<squared_error = 0.0<br/>samples = 1<br/>value = 61.0>, fillcolor="#efb185"] ;
271 -> 272 ;
273 [label=<squared_error = 0.0<br/>samples = 1<br/>value = 67.0>, fillcolor="#edaa79"] ;
271 -> 273 ;
274 [label=<STATE_OKLAHOMA &le; 0.5<br/>squared_error = 21.688<br/>samples = 4<br/>value = 41.25>, fillcolor="#f4caac"] ;
266 -> 274 ;
275 [label=<INJURIES_INDIRECT &le; 0.5<br/>squared_error = 1.0<br/>samples = 2<br/>value = 37.0>, fillcolor="#f5d0b5"] ;
274 -> 275 ;
276 [label=<squared_error = 0.0<br/>samples = 1<br/>value = 38.0>, fillcolor="#f5cfb3"] ;
275 -> 276 ;
277 [label=<squared_error = 0.0<br/>samples = 1<br/>value = 36.0>, fillcolor="#f6d1b7"] ;
275 -> 277 ;
278 [label=<EVENT_ID &le; 584932.0<br/>squared_error = 6.25<br/>samples = 2<br/>value = 45.5>, fillcolor="#f3c5a4"] ;
274 -> 278 ;
279 [label=<squared_error = 0.0<br/>samples = 1<br/>value = 48.0>, fillcolor="#f2c29f"] ;
278 -> 279 ;
280 [label=<squared_error = 0.0<br/>samples = 1<br/>value = 43.0>, fillcolor="#f4c8a9"] ;
278 -> 280 ;
281 [label=<FATALITY_SEX_M &le; 0.5<br/>squared_error = 89.139<br/>samples = 6<br/>value = 68.167>, fillcolor="#eda877"] ;
265 -> 281 ;
282 [label=<squared_error = 0.0<br/>samples = 1<br/>value = 87.0>, fillcolor="#e89051"] ;
281 -> 282 ;
283 [label=<INJURIES_DIRECT &le; 3.0<br/>squared_error = 21.84<br/>samples = 5<br/>value = 64.4>, fillcolor="#eead7e"] ;
281 -> 283 ;
284 [label=<EVENT_ID &le; 571493.0<br/>squared_error = 9.556<br/>samples = 3<br/>value = 67.667>, fillcolor="#eda978"] ;
283 -> 284 ;
285 [label=<squared_error = 0.0<br/>samples = 1<br/>value = 72.0>, fillcolor="#eca36f"] ;
284 -> 285 ;
286 [label=<CZ_NAME_AUSTIN &le; 0.5<br/>squared_error = 0.25<br/>samples = 2<br/>value = 65.5>, fillcolor="#eeac7c"] ;
284 -> 286 ;
287 [label=<squared_error = 0.0<br/>samples = 1<br/>value = 66.0>, fillcolor="#eeab7b"] ;
286 -> 287 ;
288 [label=<squared_error = 0.0<br/>samples = 1<br/>value = 65.0>, fillcolor="#eeac7d"] ;
286 -> 288 ;
289 [label=<EVENT_ID &le; 573111.5<br/>squared_error = 0.25<br/>samples = 2<br/>value = 59.5>, fillcolor="#efb388"] ;
283 -> 289 ;
290 [label=<squared_error = 0.0<br/>samples = 1<br/>value = 60.0>, fillcolor="#efb387"] ;
289 -> 290 ;
291 [label=<squared_error = 0.0<br/>samples = 1<br/>value = 59.0>, fillcolor="#f0b489"] ;
289 -> 291 ;
292 [label=<FATALITY_ID &le; 22010.0<br/>squared_error = 121.556<br/>samples = 3<br/>value = 14.333>, fillcolor="#fbede2"] ;
30 -> 292 ;
293 [label=<squared_error = 0.0<br/>samples = 1<br/>value = 28.0>, fillcolor="#f8dbc7"] ;
292 -> 293 ;
294 [label=<CZ_FIPS &le; 68.0<br/>squared_error = 42.25<br/>samples = 2<br/>value = 7.5>, fillcolor="#fdf5f0"] ;
292 -> 294 ;
295 [label=<squared_error = 0.0<br/>samples = 1<br/>value = 1.0>, fillcolor="#fffefd"] ;
294 -> 295 ;
296 [label=<squared_error = 0.0<br/>samples = 1<br/>value = 14.0>, fillcolor="#fbede3"] ;
294 -> 296 ;
297 [label=<FATALITY_ID &le; 28709.0<br/>squared_error = 380.526<br/>samples = 62<br/>value = 32.919>, fillcolor="#f6d5bd"] ;
29 -> 297 ;
298 [label=<squared_error = 0.0<br/>samples = 1<br/>value = 81.0>, fillcolor="#ea985d"] ;
297 -> 298 ;
299 [label=<END_TIME &le; 1437.5<br/>squared_error = 348.245<br/>samples = 61<br/>value = 32.131>, fillcolor="#f7d6bf"] ;
297 -> 299 ;
300 [label=<MONTH_NAME_January &le; 0.5<br/>squared_error = 240.14<br/>samples = 32<br/>value = 25.719>, fillcolor="#f8decc"] ;
299 -> 300 ;
301 [label=<EVENT_TYPE_Debris Flow &le; 0.5<br/>squared_error = 196.427<br/>samples = 30<br/>value = 23.8>, fillcolor="#f9e1cf"] ;
300 -> 301 ;
302 [label=<CZ_FIPS &le; 105.0<br/>squared_error = 156.31<br/>samples = 28<br/>value = 22.393>, fillcolor="#f9e2d2"] ;
301 -> 302 ;
303 [label=<Unnamed: 0 &le; 1927.5<br/>squared_error = 176.228<br/>samples = 20<br/>value = 24.65>, fillcolor="#f9e0ce"] ;
302 -> 303 ;
304 [label=<Unnamed: 0 &le; 1515.0<br/>squared_error = 107.716<br/>samples = 13<br/>value = 21.231>, fillcolor="#f9e4d5"] ;
303 -> 304 ;
305 [label=<CZ_TIMEZONE_EST-5 &le; 0.5<br/>squared_error = 76.6<br/>samples = 10<br/>value = 25.0>, fillcolor="#f8dfcd"] ;
304 -> 305 ;
306 [label=<FATALITY_ID &le; 29258.5<br/>squared_error = 45.667<br/>samples = 6<br/>value = 28.0>, fillcolor="#f8dbc7"] ;
305 -> 306 ;
307 [label=<FATALITY_ID &le; 29000.5<br/>squared_error = 9.0<br/>samples = 2<br/>value = 33.0>, fillcolor="#f6d5bd"] ;
306 -> 307 ;
308 [label=<squared_error = 0.0<br/>samples = 1<br/>value = 30.0>, fillcolor="#f7d9c3"] ;
307 -> 308 ;
309 [label=<squared_error = 0.0<br/>samples = 1<br/>value = 36.0>, fillcolor="#f6d1b7"] ;
307 -> 309 ;
310 [label=<FATALITY_LOCATION_Unknown &le; 0.5<br/>squared_error = 45.25<br/>samples = 4<br/>value = 25.5>, fillcolor="#f8dfcc"] ;
306 -> 310 ;
311 [label=<SOURCE_Emergency Manager &le; 0.5<br/>squared_error = 20.222<br/>samples = 3<br/>value = 28.667>, fillcolor="#f7dbc6"] ;
310 -> 311 ;
312 [label=<squared_error = 0.0<br/>samples = 1<br/>value = 35.0>, fillcolor="#f6d2b9"] ;
311 -> 312 ;
313 [label=<Unnamed: 0 &le; 1311.5<br/>squared_error = 0.25<br/>samples = 2<br/>value = 25.5>, fillcolor="#f8dfcc"] ;
311 -> 313 ;
314 [label=<squared_error = 0.0<br/>samples = 1<br/>value = 26.0>, fillcolor="#f8decb"] ;
313 -> 314 ;
315 [label=<squared_error = 0.0<br/>samples = 1<br/>value = 25.0>, fillcolor="#f8dfcd"] ;
313 -> 315 ;
316 [label=<squared_error = 0.0<br/>samples = 1<br/>value = 16.0>, fillcolor="#fbebdf"] ;
310 -> 316 ;
317 [label=<FATALITY_SEX_F &le; 0.5<br/>squared_error = 89.25<br/>samples = 4<br/>value = 20.5>, fillcolor="#fae5d6"] ;
305 -> 317 ;
318 [label=<BEGIN_TIME &le; 1785.0<br/>squared_error = 25.0<br/>samples = 2<br/>value = 12.0>, fillcolor="#fcf0e7"] ;
317 -> 318 ;
319 [label=<squared_error = 0.0<br/>samples = 1<br/>value = 17.0>, fillcolor="#fbe9dd"] ;
318 -> 319 ;
320 [label=<squared_error = 0.0<br/>samples = 1<br/>value = 7.0>, fillcolor="#fdf6f1"] ;
318 -> 320 ;
321 [label=<EVENT_ID &le; 592332.5<br/>squared_error = 9.0<br/>samples = 2<br/>value = 29.0>, fillcolor="#f7dac5"] ;
317 -> 321 ;
322 [label=<squared_error = 0.0<br/>samples = 1<br/>value = 32.0>, fillcolor="#f7d6bf"] ;
321 -> 322 ;
323 [label=<squared_error = 0.0<br/>samples = 1<br/>value = 26.0>, fillcolor="#f8decb"] ;
321 -> 323 ;
324 [label=<DEATHS_DIRECT &le; 3.0<br/>squared_error = 6.222<br/>samples = 3<br/>value = 8.667>, fillcolor="#fdf4ee"] ;
304 -> 324 ;
325 [label=<squared_error = 0.0<br/>samples = 1<br/>value = 12.0>, fillcolor="#fcf0e7"] ;
324 -> 325 ;
326 [label=<Unnamed: 0 &le; 1926.0<br/>squared_error = 1.0<br/>samples = 2<br/>value = 7.0>, fillcolor="#fdf6f1"] ;
324 -> 326 ;
327 [label=<squared_error = 0.0<br/>samples = 1<br/>value = 8.0>, fillcolor="#fdf5ef"] ;
326 -> 327 ;
328 [label=<squared_error = 0.0<br/>samples = 1<br/>value = 6.0>, fillcolor="#fdf7f3"] ;
326 -> 328 ;
329 [label=<FATALITY_ID &le; 30240.5<br/>squared_error = 241.429<br/>samples = 7<br/>value = 31.0>, fillcolor="#f7d8c1"] ;
303 -> 329 ;
330 [label=<squared_error = 0.0<br/>samples = 1<br/>value = 64.0>, fillcolor="#eeae7f"] ;
329 -> 330 ;
331 [label=<STATE_OHIO &le; 0.5<br/>squared_error = 69.917<br/>samples = 6<br/>value = 25.5>, fillcolor="#f8dfcc"] ;
329 -> 331 ;
332 [label=<BEGIN_TIME &le; 101.0<br/>squared_error = 18.56<br/>samples = 5<br/>value = 28.8>, fillcolor="#f7dac5"] ;
331 -> 332 ;
333 [label=<FATALITY_SEX_F &le; 0.5<br/>squared_error = 4.0<br/>samples = 2<br/>value = 24.0>, fillcolor="#f9e0cf"] ;
332 -> 333 ;
334 [label=<squared_error = 0.0<br/>samples = 1<br/>value = 26.0>, fillcolor="#f8decb"] ;
333 -> 334 ;
335 [label=<squared_error = 0.0<br/>samples = 1<br/>value = 22.0>, fillcolor="#f9e3d3"] ;
333 -> 335 ;
336 [label=<FATALITY_ID &le; 31557.5<br/>squared_error = 2.667<br/>samples = 3<br/>value = 32.0>, fillcolor="#f7d6bf"] ;
332 -> 336 ;
337 [label=<squared_error = 0.0<br/>samples = 1<br/>value = 30.0>, fillcolor="#f7d9c3"] ;
336 -> 337 ;
338 [label=<FATALITY_SEX_F &le; 0.5<br/>squared_error = 1.0<br/>samples = 2<br/>value = 33.0>, fillcolor="#f6d5bd"] ;
336 -> 338 ;
339 [label=<squared_error = 0.0<br/>samples = 1<br/>value = 34.0>, fillcolor="#f6d4bb"] ;
338 -> 339 ;
340 [label=<squared_error = 0.0<br/>samples = 1<br/>value = 32.0>, fillcolor="#f7d6bf"] ;
338 -> 340 ;
341 [label=<squared_error = 0.0<br/>samples = 1<br/>value = 9.0>, fillcolor="#fdf4ed"] ;
331 -> 341 ;
342 [label=<FAT_DAY &le; 27.5<br/>squared_error = 61.938<br/>samples = 8<br/>value = 16.75>, fillcolor="#fbeade"] ;
302 -> 342 ;
343 [label=<Unnamed: 0 &le; 1776.5<br/>squared_error = 10.25<br/>samples = 6<br/>value = 12.5>, fillcolor="#fcefe6"] ;
342 -> 343 ;
344 [label=<CZ_NAME_WARREN &le; 0.5<br/>squared_error = 2.25<br/>samples = 2<br/>value = 16.5>, fillcolor="#fbeade"] ;
343 -> 344 ;
345 [label=<squared_error = 0.0<br/>samples = 1<br/>value = 18.0>, fillcolor="#fae8db"] ;
344 -> 345 ;
346 [label=<squared_error = 0.0<br/>samples = 1<br/>value = 15.0>, fillcolor="#fbece1"] ;
344 -> 346 ;
347 [label=<CZ_FIPS &le; 146.0<br/>squared_error = 2.25<br/>samples = 4<br/>value = 10.5>, fillcolor="#fcf2ea"] ;
343 -> 347 ;
348 [label=<squared_error = 0.0<br/>samples = 1<br/>value = 8.0>, fillcolor="#fdf5ef"] ;
347 -> 348 ;
349 [label=<FAT_DAY &le; 12.5<br/>squared_error = 0.222<br/>samples = 3<br/>value = 11.333>, fillcolor="#fcf1e8"] ;
347 -> 349 ;
350 [label=<squared_error = 0.0<br/>samples = 1<br/>value = 12.0>, fillcolor="#fcf0e7"] ;
349 -> 350 ;
351 [label=<squared_error = 0.0<br/>samples = 2<br/>value = 11.0>, fillcolor="#fcf1e9"] ;
349 -> 351 ;
352 [label=<MONTH_NAME_September &le; 0.5<br/>squared_error = 0.25<br/>samples = 2<br/>value = 29.5>, fillcolor="#f7d9c4"] ;
342 -> 352 ;
353 [label=<squared_error = 0.0<br/>samples = 1<br/>value = 29.0>, fillcolor="#f7dac5"] ;
352 -> 353 ;
354 [label=<squared_error = 0.0<br/>samples = 1<br/>value = 30.0>, fillcolor="#f7d9c3"] ;
352 -> 354 ;
355 [label=<FATALITY_ID &le; 29804.5<br/>squared_error = 342.25<br/>samples = 2<br/>value = 43.5>, fillcolor="#f4c8a8"] ;
301 -> 355 ;
356 [label=<squared_error = 0.0<br/>samples = 1<br/>value = 62.0>, fillcolor="#efb083"] ;
355 -> 356 ;
357 [label=<squared_error = 0.0<br/>samples = 1<br/>value = 25.0>, fillcolor="#f8dfcd"] ;
355 -> 357 ;
358 [label=<FATALITY_ID &le; 29701.5<br/>squared_error = 12.25<br/>samples = 2<br/>value = 54.5>, fillcolor="#f1ba92"] ;
300 -> 358 ;
359 [label=<squared_error = 0.0<br/>samples = 1<br/>value = 58.0>, fillcolor="#f0b58b"] ;
358 -> 359 ;
360 [label=<squared_error = 0.0<br/>samples = 1<br/>value = 51.0>, fillcolor="#f2be99"] ;
358 -> 360 ;
361 [label=<CZ_FIPS &le; 28.0<br/>squared_error = 372.095<br/>samples = 29<br/>value = 39.207>, fillcolor="#f5cdb1"] ;
299 -> 361 ;
362 [label=<FATALITY_LOCATION_Mobile/Trailer Home &le; 0.5<br/>squared_error = 94.25<br/>samples = 4<br/>value = 17.5>, fillcolor="#fae9dc"] ;
361 -> 362 ;
363 [label=<STATE_FLORIDA &le; 0.5<br/>squared_error = 44.667<br/>samples = 3<br/>value = 13.0>, fillcolor="#fceee5"] ;
362 -> 363 ;
364 [label=<INJURIES_DIRECT &le; 16.0<br/>squared_error = 6.25<br/>samples = 2<br/>value = 8.5>, fillcolor="#fdf4ee"] ;
363 -> 364 ;
365 [label=<squared_error = 0.0<br/>samples = 1<br/>value = 11.0>, fillcolor="#fcf1e9"] ;
364 -> 365 ;
366 [label=<squared_error = 0.0<br/>samples = 1<br/>value = 6.0>, fillcolor="#fdf7f3"] ;
364 -> 366 ;
367 [label=<squared_error = 0.0<br/>samples = 1<br/>value = 22.0>, fillcolor="#f9e3d3"] ;
363 -> 367 ;
368 [label=<squared_error = 0.0<br/>samples = 1<br/>value = 31.0>, fillcolor="#f7d8c1"] ;
362 -> 368 ;
369 [label=<BEGIN_TIME &le; 1921.0<br/>squared_error = 329.098<br/>samples = 25<br/>value = 42.68>, fillcolor="#f4c9aa"] ;
361 -> 369 ;
370 [label=<WFO_BMX &le; 0.5<br/>squared_error = 262.926<br/>samples = 23<br/>value = 45.174>, fillcolor="#f3c6a5"] ;
369 -> 370 ;
371 [label=<WFO_LSX &le; 0.5<br/>squared_error = 238.083<br/>samples = 22<br/>value = 43.909>, fillcolor="#f3c7a7"] ;
370 -> 371 ;
372 [label=<END_TIME &le; 1872.5<br/>squared_error = 210.054<br/>samples = 21<br/>value = 42.571>, fillcolor="#f4c9aa"] ;
371 -> 372 ;
373 [label=<FAT_DAY &le; 25.5<br/>squared_error = 125.25<br/>samples = 16<br/>value = 39.0>, fillcolor="#f5cdb1"] ;
372 -> 373 ;
374 [label=<CZ_FIPS &le; 90.0<br/>squared_error = 96.139<br/>samples = 12<br/>value = 43.167>, fillcolor="#f4c8a9"] ;
373 -> 374 ;
375 [label=<BEGIN_TIME &le; 1722.5<br/>squared_error = 19.359<br/>samples = 8<br/>value = 47.875>, fillcolor="#f2c29f"] ;
374 -> 375 ;
376 [label=<END_DAY &le; 16.5<br/>squared_error = 10.24<br/>samples = 5<br/>value = 50.6>, fillcolor="#f2bf9a"] ;
375 -> 376 ;
377 [label=<CZ_TIMEZONE_CST-6 &le; 0.5<br/>squared_error = 1.556<br/>samples = 3<br/>value = 48.333>, fillcolor="#f2c19e"] ;
376 -> 377 ;
378 [label=<squared_error = 0.0<br/>samples = 1<br/>value = 47.0>, fillcolor="#f3c3a1"] ;
377 -> 378 ;
379 [label=<EVENT_ID &le; 595085.5<br/>squared_error = 1.0<br/>samples = 2<br/>value = 49.0>, fillcolor="#f2c19d"] ;
377 -> 379 ;
380 [label=<squared_error = 0.0<br/>samples = 1<br/>value = 48.0>, fillcolor="#f2c29f"] ;
379 -> 380 ;
381 [label=<squared_error = 0.0<br/>samples = 1<br/>value = 50.0>, fillcolor="#f2bf9b"] ;
379 -> 381 ;
382 [label=<Unnamed: 0 &le; 1589.5<br/>squared_error = 4.0<br/>samples = 2<br/>value = 54.0>, fillcolor="#f1ba93"] ;
376 -> 382 ;
383 [label=<squared_error = 0.0<br/>samples = 1<br/>value = 56.0>, fillcolor="#f0b88f"] ;
382 -> 383 ;
384 [label=<squared_error = 0.0<br/>samples = 1<br/>value = 52.0>, fillcolor="#f1bd97"] ;
382 -> 384 ;
385 [label=<FATALITY_SEX_M &le; 0.5<br/>squared_error = 1.556<br/>samples = 3<br/>value = 43.333>, fillcolor="#f4c8a8"] ;
375 -> 385 ;
386 [label=<squared_error = 0.0<br/>samples = 1<br/>value = 45.0>, fillcolor="#f3c6a5"] ;
385 -> 386 ;
387 [label=<FAT_DAY &le; 18.0<br/>squared_error = 0.25<br/>samples = 2<br/>value = 42.5>, fillcolor="#f4c9aa"] ;
385 -> 387 ;
388 [label=<squared_error = 0.0<br/>samples = 1<br/>value = 43.0>, fillcolor="#f4c8a9"] ;
387 -> 388 ;
389 [label=<squared_error = 0.0<br/>samples = 1<br/>value = 42.0>, fillcolor="#f4caab"] ;
387 -> 389 ;
390 [label=<CZ_FIPS &le; 156.0<br/>squared_error = 116.688<br/>samples = 4<br/>value = 33.75>, fillcolor="#f6d4bc"] ;
374 -> 390 ;
391 [label=<EVENT_ID &le; 610799.5<br/>squared_error = 1.0<br/>samples = 2<br/>value = 24.0>, fillcolor="#f9e0cf"] ;
390 -> 391 ;
392 [label=<squared_error = 0.0<br/>samples = 1<br/>value = 25.0>, fillcolor="#f8dfcd"] ;
391 -> 392 ;
393 [label=<squared_error = 0.0<br/>samples = 1<br/>value = 23.0>, fillcolor="#f9e2d1"] ;
391 -> 393 ;
394 [label=<DEATHS_DIRECT &le; 2.0<br/>squared_error = 42.25<br/>samples = 2<br/>value = 43.5>, fillcolor="#f4c8a8"] ;
390 -> 394 ;
395 [label=<squared_error = 0.0<br/>samples = 1<br/>value = 37.0>, fillcolor="#f5d0b5"] ;
394 -> 395 ;
396 [label=<squared_error = 0.0<br/>samples = 1<br/>value = 50.0>, fillcolor="#f2bf9b"] ;
394 -> 396 ;
397 [label=<END_TIME &le; 1562.5<br/>squared_error = 4.25<br/>samples = 4<br/>value = 26.5>, fillcolor="#f8ddca"] ;
373 -> 397 ;
398 [label=<SOURCE_Broadcast Media &le; 0.5<br/>squared_error = 0.25<br/>samples = 2<br/>value = 24.5>, fillcolor="#f9e0ce"] ;
397 -> 398 ;
399 [label=<squared_error = 0.0<br/>samples = 1<br/>value = 24.0>, fillcolor="#f9e0cf"] ;
398 -> 399 ;
400 [label=<squared_error = 0.0<br/>samples = 1<br/>value = 25.0>, fillcolor="#f8dfcd"] ;
398 -> 400 ;
401 [label=<WFO_LWX &le; 0.5<br/>squared_error = 0.25<br/>samples = 2<br/>value = 28.5>, fillcolor="#f8dbc6"] ;
397 -> 401 ;
402 [label=<squared_error = 0.0<br/>samples = 1<br/>value = 28.0>, fillcolor="#f8dbc7"] ;
401 -> 402 ;
403 [label=<squared_error = 0.0<br/>samples = 1<br/>value = 29.0>, fillcolor="#f7dac5"] ;
401 -> 403 ;
404 [label=<FATALITY_ID &le; 29220.0<br/>squared_error = 310.0<br/>samples = 5<br/>value = 54.0>, fillcolor="#f1ba93"] ;
372 -> 404 ;
405 [label=<squared_error = 0.0<br/>samples = 1<br/>value = 74.0>, fillcolor="#eca16b"] ;
404 -> 405 ;
406 [label=<EPISODE_ID &le; 99244.5<br/>squared_error = 262.5<br/>samples = 4<br/>value = 49.0>, fillcolor="#f2c19d"] ;
404 -> 406 ;
407 [label=<squared_error = 0.0<br/>samples = 1<br/>value = 22.0>, fillcolor="#f9e3d3"] ;
406 -> 407 ;
408 [label=<DEATHS_DIRECT &le; 1.5<br/>squared_error = 26.0<br/>samples = 3<br/>value = 58.0>, fillcolor="#f0b58b"] ;
406 -> 408 ;
409 [label=<YEAR &le; 2015.5<br/>squared_error = 2.25<br/>samples = 2<br/>value = 54.5>, fillcolor="#f1ba92"] ;
408 -> 409 ;
410 [label=<squared_error = 0.0<br/>samples = 1<br/>value = 53.0>, fillcolor="#f1bc95"] ;
409 -> 410 ;
411 [label=<squared_error = 0.0<br/>samples = 1<br/>value = 56.0>, fillcolor="#f0b88f"] ;
409 -> 411 ;
412 [label=<squared_error = 0.0<br/>samples = 1<br/>value = 65.0>, fillcolor="#eeac7d"] ;
408 -> 412 ;
413 [label=<squared_error = 0.0<br/>samples = 1<br/>value = 72.0>, fillcolor="#eca36f"] ;
371 -> 413 ;
414 [label=<squared_error = 0.0<br/>samples = 1<br/>value = 73.0>, fillcolor="#eca26d"] ;
370 -> 414 ;
415 [label=<FAT_DAY &le; 22.0<br/>squared_error = 196.0<br/>samples = 2<br/>value = 14.0>, fillcolor="#fbede3"] ;
369 -> 415 ;
416 [label=<squared_error = 0.0<br/>samples = 1<br/>value = 28.0>, fillcolor="#f8dbc7"] ;
415 -> 416 ;
417 [label=<squared_error = 0.0<br/>samples = 1<br/>value = 0.0>, fillcolor="#ffffff"] ;
415 -> 417 ;
418 [label=<DEATHS_DIRECT &le; 1.5<br/>squared_error = 104.667<br/>samples = 9<br/>value = 60.333>, fillcolor="#efb286"] ;
28 -> 418 ;
419 [label=<BEGIN_TIME &le; 1687.5<br/>squared_error = 36.16<br/>samples = 5<br/>value = 53.2>, fillcolor="#f1bb95"] ;
418 -> 419 ;
420 [label=<END_TIME &le; 1616.0<br/>squared_error = 12.688<br/>samples = 4<br/>value = 55.75>, fillcolor="#f0b890"] ;
419 -> 420 ;
421 [label=<END_DAY &le; 23.5<br/>squared_error = 4.667<br/>samples = 3<br/>value = 54.0>, fillcolor="#f1ba93"] ;
420 -> 421 ;
422 [label=<YEAR &le; 2013.5<br/>squared_error = 0.25<br/>samples = 2<br/>value = 55.5>, fillcolor="#f0b890"] ;
421 -> 422 ;
423 [label=<squared_error = 0.0<br/>samples = 1<br/>value = 55.0>, fillcolor="#f1b991"] ;
422 -> 423 ;
424 [label=<squared_error = 0.0<br/>samples = 1<br/>value = 56.0>, fillcolor="#f0b88f"] ;
422 -> 424 ;
425 [label=<squared_error = 0.0<br/>samples = 1<br/>value = 51.0>, fillcolor="#f2be99"] ;
421 -> 425 ;
426 [label=<squared_error = 0.0<br/>samples = 1<br/>value = 61.0>, fillcolor="#efb185"] ;
420 -> 426 ;
427 [label=<squared_error = 0.0<br/>samples = 1<br/>value = 43.0>, fillcolor="#f4c8a9"] ;
419 -> 427 ;
428 [label=<CZ_FIPS &le; 60.0<br/>squared_error = 47.188<br/>samples = 4<br/>value = 69.25>, fillcolor="#eda774"] ;
418 -> 428 ;
429 [label=<CZ_NAME_BENTON &le; 0.5<br/>squared_error = 11.556<br/>samples = 3<br/>value = 65.667>, fillcolor="#eeab7c"] ;
428 -> 429 ;
430 [label=<squared_error = 0.0<br/>samples = 1<br/>value = 61.0>, fillcolor="#efb185"] ;
429 -> 430 ;
431 [label=<FATALITY_ID &le; 29888.5<br/>squared_error = 1.0<br/>samples = 2<br/>value = 68.0>, fillcolor="#eda877"] ;
429 -> 431 ;
432 [label=<squared_error = 0.0<br/>samples = 1<br/>value = 69.0>, fillcolor="#eda775"] ;
431 -> 432 ;
433 [label=<squared_error = 0.0<br/>samples = 1<br/>value = 67.0>, fillcolor="#edaa79"] ;
431 -> 433 ;
434 [label=<squared_error = 0.0<br/>samples = 1<br/>value = 80.0>, fillcolor="#ea995f"] ;
428 -> 434 ;
435 [label=<SOURCE_Broadcast Media &le; 0.5<br/>squared_error = 432.043<br/>samples = 432<br/>value = 48.1>, fillcolor="#f2c29f"] ;
7 -> 435 ;
436 [label=<CZ_NAME_TUSCALOOSA &le; 0.5<br/>squared_error = 413.436<br/>samples = 356<br/>value = 49.851>, fillcolor="#f2c09b"] ;
435 -> 436 ;
437 [label=<DEATHS_DIRECT &le; 18.0<br/>squared_error = 402.505<br/>samples = 353<br/>value = 50.19>, fillcolor="#f2bf9b"] ;
436 -> 437 ;
438 [label=<STATE_KENTUCKY &le; 0.5<br/>squared_error = 372.97<br/>samples = 297<br/>value = 51.848>, fillcolor="#f1bd97"] ;
437 -> 438 ;
439 [label=<CZ_NAME_GREENBRIER &le; 0.5<br/>squared_error = 376.934<br/>samples = 276<br/>value = 50.913>, fillcolor="#f2be99"] ;
438 -> 439 ;
440 [label=<MONTH_NAME_February &le; 0.5<br/>squared_error = 369.97<br/>samples = 269<br/>value = 50.361>, fillcolor="#f2bf9a"] ;
439 -> 440 ;
441 [label=<Unnamed: 0 &le; 4256.5<br/>squared_error = 366.657<br/>samples = 254<br/>value = 49.551>, fillcolor="#f2c09c"] ;
440 -> 441 ;
442 [label=<FATALITY_ID &le; 39286.5<br/>squared_error = 337.637<br/>samples = 77<br/>value = 44.623>, fillcolor="#f3c6a6"] ;
441 -> 442 ;
443 [label=<BEGIN_TIME &le; 2285.5<br/>squared_error = 299.422<br/>samples = 71<br/>value = 46.606>, fillcolor="#f3c4a2"] ;
442 -> 443 ;
444 [label=<FAT_DAY &le; 20.5<br/>squared_error = 274.87<br/>samples = 70<br/>value = 47.243>, fillcolor="#f3c3a1"] ;
443 -> 444 ;
445 [label=<END_TIME &le; 2072.0<br/>squared_error = 232.027<br/>samples = 41<br/>value = 51.854>, fillcolor="#f1bd97"] ;
444 -> 445 ;
446 [label=<WFO_CLE &le; 0.5<br/>squared_error = 220.973<br/>samples = 37<br/>value = 50.0>, fillcolor="#f2bf9b"] ;
445 -> 446 ;
447 [label=<EVENT_TYPE_Flood &le; 0.5<br/>squared_error = 197.877<br/>samples = 36<br/>value = 49.111>, fillcolor="#f2c09d"] ;
446 -> 447 ;
448 [label=<WFO_MRX &le; 0.5<br/>squared_error = 172.822<br/>samples = 31<br/>value = 46.871>, fillcolor="#f3c3a1"] ;
447 -> 448 ;
449 [label=<EVENT_TYPE_Lightning &le; 0.5<br/>squared_error = 144.159<br/>samples = 27<br/>value = 44.63>, fillcolor="#f3c6a6"] ;
448 -> 449 ;
450 [label=<END_DAY &le; 2.5<br/>squared_error = 114.561<br/>samples = 17<br/>value = 48.706>, fillcolor="#f2c19e"] ;
449 -> 450 ;
451 [label=<FATALITY_ID &le; 32933.5<br/>squared_error = 96.571<br/>samples = 7<br/>value = 42.0>, fillcolor="#f4caab"] ;
450 -> 451 ;
452 [label=<squared_error = 0.0<br/>samples = 1<br/>value = 27.0>, fillcolor="#f8ddc9"] ;
451 -> 452 ;
453 [label=<FATALITY_ID &le; 36797.5<br/>squared_error = 68.917<br/>samples = 6<br/>value = 44.5>, fillcolor="#f3c6a6"] ;
451 -> 453 ;
454 [label=<BEGIN_TIME &le; 1392.0<br/>squared_error = 41.5<br/>samples = 4<br/>value = 49.0>, fillcolor="#f2c19d"] ;
453 -> 454 ;
455 [label=<squared_error = 0.0<br/>samples = 1<br/>value = 38.0>, fillcolor="#f5cfb3"] ;
454 -> 455 ;
456 [label=<FATALITY_ID &le; 32934.5<br/>squared_error = 1.556<br/>samples = 3<br/>value = 52.667>, fillcolor="#f1bc96"] ;
454 -> 456 ;
457 [label=<squared_error = 0.0<br/>samples = 1<br/>value = 51.0>, fillcolor="#f2be99"] ;
456 -> 457 ;
458 [label=<FAT_YEARMONTH &le; 201756.0<br/>squared_error = 0.25<br/>samples = 2<br/>value = 53.5>, fillcolor="#f1bb94"] ;
456 -> 458 ;
459 [label=<squared_error = 0.0<br/>samples = 1<br/>value = 53.0>, fillcolor="#f1bc95"] ;
458 -> 459 ;
460 [label=<squared_error = 0.0<br/>samples = 1<br/>value = 54.0>, fillcolor="#f1ba93"] ;
458 -> 460 ;
461 [label=<FAT_DAY &le; 1.5<br/>squared_error = 2.25<br/>samples = 2<br/>value = 35.5>, fillcolor="#f6d2b8"] ;
453 -> 461 ;
462 [label=<squared_error = 0.0<br/>samples = 1<br/>value = 34.0>, fillcolor="#f6d4bb"] ;
461 -> 462 ;
463 [label=<squared_error = 0.0<br/>samples = 1<br/>value = 37.0>, fillcolor="#f5d0b5"] ;
461 -> 463 ;
464 [label=<WFO_MPX &le; 0.5<br/>squared_error = 73.64<br/>samples = 10<br/>value = 53.4>, fillcolor="#f1bb94"] ;
450 -> 464 ;
465 [label=<FATALITY_ID &le; 39284.5<br/>squared_error = 72.484<br/>samples = 8<br/>value = 55.375>, fillcolor="#f0b990"] ;
464 -> 465 ;
466 [label=<DEATHS_DIRECT &le; 9.5<br/>squared_error = 65.265<br/>samples = 7<br/>value = 56.857>, fillcolor="#f0b78d"] ;
465 -> 466 ;
467 [label=<EVENT_TYPE_Thunderstorm Wind &le; 0.5<br/>squared_error = 47.472<br/>samples = 6<br/>value = 54.833>, fillcolor="#f1b991"] ;
466 -> 467 ;
468 [label=<SOURCE_NWS Storm Survey &le; 0.5<br/>squared_error = 12.188<br/>samples = 4<br/>value = 59.25>, fillcolor="#efb488"] ;
467 -> 468 ;
469 [label=<WFO_LIX &le; 0.5<br/>squared_error = 1.556<br/>samples = 3<br/>value = 57.333>, fillcolor="#f0b68c"] ;
468 -> 469 ;
470 [label=<FATALITY_ID &le; 32499.0<br/>squared_error = 0.25<br/>samples = 2<br/>value = 56.5>, fillcolor="#f0b78e"] ;
469 -> 470 ;
471 [label=<squared_error = 0.0<br/>samples = 1<br/>value = 56.0>, fillcolor="#f0b88f"] ;
470 -> 471 ;
472 [label=<squared_error = 0.0<br/>samples = 1<br/>value = 57.0>, fillcolor="#f0b68d"] ;
470 -> 472 ;
473 [label=<squared_error = 0.0<br/>samples = 1<br/>value = 59.0>, fillcolor="#f0b489"] ;
469 -> 473 ;
474 [label=<squared_error = 0.0<br/>samples = 1<br/>value = 65.0>, fillcolor="#eeac7d"] ;
468 -> 474 ;
475 [label=<CZ_NAME_UNION &le; 0.5<br/>squared_error = 1.0<br/>samples = 2<br/>value = 46.0>, fillcolor="#f3c4a3"] ;
467 -> 475 ;
476 [label=<squared_error = 0.0<br/>samples = 1<br/>value = 47.0>, fillcolor="#f3c3a1"] ;
475 -> 476 ;
477 [label=<squared_error = 0.0<br/>samples = 1<br/>value = 45.0>, fillcolor="#f3c6a5"] ;
475 -> 477 ;
478 [label=<squared_error = 0.0<br/>samples = 1<br/>value = 69.0>, fillcolor="#eda775"] ;
466 -> 478 ;
479 [label=<squared_error = 0.0<br/>samples = 1<br/>value = 45.0>, fillcolor="#f3c6a5"] ;
465 -> 479 ;
480 [label=<MONTH_NAME_June &le; 0.5<br/>squared_error = 0.25<br/>samples = 2<br/>value = 45.5>, fillcolor="#f3c5a4"] ;
464 -> 480 ;
481 [label=<squared_error = 0.0<br/>samples = 1<br/>value = 45.0>, fillcolor="#f3c6a5"] ;
480 -> 481 ;
482 [label=<squared_error = 0.0<br/>samples = 1<br/>value = 46.0>, fillcolor="#f3c4a3"] ;
480 -> 482 ;
483 [label=<FATALITY_ID &le; 33747.0<br/>squared_error = 118.21<br/>samples = 10<br/>value = 37.7>, fillcolor="#f5cfb4"] ;
449 -> 483 ;
484 [label=<CZ_NAME_BEDFORD &le; 0.5<br/>squared_error = 80.234<br/>samples = 8<br/>value = 41.375>, fillcolor="#f4caac"] ;
483 -> 484 ;
485 [label=<SOURCE_Newspaper &le; 0.5<br/>squared_error = 36.571<br/>samples = 7<br/>value = 44.0>, fillcolor="#f3c7a7"] ;
484 -> 485 ;
486 [label=<EPISODE_ID &le; 118453.5<br/>squared_error = 13.76<br/>samples = 5<br/>value = 40.8>, fillcolor="#f4cbad"] ;
485 -> 486 ;
487 [label=<FAT_DAY &le; 2.0<br/>squared_error = 4.222<br/>samples = 3<br/>value = 43.333>, fillcolor="#f4c8a8"] ;
486 -> 487 ;
488 [label=<squared_error = 0.0<br/>samples = 1<br/>value = 46.0>, fillcolor="#f3c4a3"] ;
487 -> 488 ;
489 [label=<END_TIME &le; 1558.5<br/>squared_error = 1.0<br/>samples = 2<br/>value = 42.0>, fillcolor="#f4caab"] ;
487 -> 489 ;
490 [label=<squared_error = 0.0<br/>samples = 1<br/>value = 41.0>, fillcolor="#f4cbad"] ;
489 -> 490 ;
491 [label=<squared_error = 0.0<br/>samples = 1<br/>value = 43.0>, fillcolor="#f4c8a9"] ;
489 -> 491 ;
492 [label=<STATE_NORTH CAROLINA &le; 0.5<br/>squared_error = 4.0<br/>samples = 2<br/>value = 37.0>, fillcolor="#f5d0b5"] ;
486 -> 492 ;
493 [label=<squared_error = 0.0<br/>samples = 1<br/>value = 35.0>, fillcolor="#f6d2b9"] ;
492 -> 493 ;
494 [label=<squared_error = 0.0<br/>samples = 1<br/>value = 39.0>, fillcolor="#f5cdb1"] ;
492 -> 494 ;
495 [label=<CZ_NAME_DUTCHESS &le; 0.5<br/>squared_error = 4.0<br/>samples = 2<br/>value = 52.0>, fillcolor="#f1bd97"] ;
485 -> 495 ;
496 [label=<squared_error = 0.0<br/>samples = 1<br/>value = 54.0>, fillcolor="#f1ba93"] ;
495 -> 496 ;
497 [label=<squared_error = 0.0<br/>samples = 1<br/>value = 50.0>, fillcolor="#f2bf9b"] ;
495 -> 497 ;
498 [label=<squared_error = 0.0<br/>samples = 1<br/>value = 23.0>, fillcolor="#f9e2d1"] ;
484 -> 498 ;
499 [label=<squared_error = 0.0<br/>samples = 2<br/>value = 23.0>, fillcolor="#f9e2d1"] ;
483 -> 499 ;
500 [label=<Unnamed: 0 &le; 2287.5<br/>squared_error = 103.5<br/>samples = 4<br/>value = 62.0>, fillcolor="#efb083"] ;
448 -> 500 ;
501 [label=<Unnamed: 0 &le; 2286.5<br/>squared_error = 42.25<br/>samples = 2<br/>value = 53.5>, fillcolor="#f1bb94"] ;
500 -> 501 ;
502 [label=<squared_error = 0.0<br/>samples = 1<br/>value = 60.0>, fillcolor="#efb387"] ;
501 -> 502 ;
503 [label=<squared_error = 0.0<br/>samples = 1<br/>value = 47.0>, fillcolor="#f3c3a1"] ;
501 -> 503 ;
504 [label=<EVENT_TYPE_Thunderstorm Wind &le; 0.5<br/>squared_error = 20.25<br/>samples = 2<br/>value = 70.5>, fillcolor="#eca572"] ;
500 -> 504 ;
505 [label=<squared_error = 0.0<br/>samples = 1<br/>value = 75.0>, fillcolor="#eba069"] ;
504 -> 505 ;
506 [label=<squared_error = 0.0<br/>samples = 1<br/>value = 66.0>, fillcolor="#eeab7b"] ;
504 -> 506 ;
507 [label=<DAMAGE_PROPERTY &le; 674550000.0<br/>squared_error = 129.2<br/>samples = 5<br/>value = 63.0>, fillcolor="#eeaf81"] ;
447 -> 507 ;
508 [label=<CZ_FIPS &le; 73.0<br/>squared_error = 6.25<br/>samples = 2<br/>value = 76.5>, fillcolor="#eb9e66"] ;
507 -> 508 ;
509 [label=<squared_error = 0.0<br/>samples = 1<br/>value = 79.0>, fillcolor="#ea9a61"] ;
508 -> 509 ;
510 [label=<squared_error = 0.0<br/>samples = 1<br/>value = 74.0>, fillcolor="#eca16b"] ;
508 -> 510 ;
511 [label=<CZ_FIPS &le; 48.0<br/>squared_error = 8.667<br/>samples = 3<br/>value = 54.0>, fillcolor="#f1ba93"] ;
507 -> 511 ;
512 [label=<FATALITY_ID &le; 31522.5<br/>squared_error = 1.0<br/>samples = 2<br/>value = 56.0>, fillcolor="#f0b88f"] ;
511 -> 512 ;
513 [label=<squared_error = 0.0<br/>samples = 1<br/>value = 55.0>, fillcolor="#f1b991"] ;
512 -> 513 ;
514 [label=<squared_error = 0.0<br/>samples = 1<br/>value = 57.0>, fillcolor="#f0b68d"] ;
512 -> 514 ;
515 [label=<squared_error = 0.0<br/>samples = 1<br/>value = 50.0>, fillcolor="#f2bf9b"] ;
511 -> 515 ;
516 [label=<squared_error = 0.0<br/>samples = 1<br/>value = 82.0>, fillcolor="#e9975b"] ;
446 -> 516 ;
517 [label=<END_TIME &le; 2228.0<br/>squared_error = 8.5<br/>samples = 4<br/>value = 69.0>, fillcolor="#eda775"] ;
445 -> 517 ;
518 [label=<YEAR &le; 2017.0<br/>squared_error = 2.25<br/>samples = 2<br/>value = 66.5>, fillcolor="#eeaa7a"] ;
517 -> 518 ;
519 [label=<squared_error = 0.0<br/>samples = 1<br/>value = 68.0>, fillcolor="#eda877"] ;
518 -> 519 ;
520 [label=<squared_error = 0.0<br/>samples = 1<br/>value = 65.0>, fillcolor="#eeac7d"] ;
518 -> 520 ;
521 [label=<MONTH_NAME_August &le; 0.5<br/>squared_error = 2.25<br/>samples = 2<br/>value = 71.5>, fillcolor="#eca470"] ;
517 -> 521 ;
522 [label=<squared_error = 0.0<br/>samples = 1<br/>value = 73.0>, fillcolor="#eca26d"] ;
521 -> 522 ;
523 [label=<squared_error = 0.0<br/>samples = 1<br/>value = 70.0>, fillcolor="#eda673"] ;
521 -> 523 ;
524 [label=<END_TIME &le; 1877.5<br/>squared_error = 262.889<br/>samples = 29<br/>value = 40.724>, fillcolor="#f4cbae"] ;
444 -> 524 ;
525 [label=<EVENT_TYPE_Flood &le; 0.5<br/>squared_error = 226.148<br/>samples = 27<br/>value = 42.667>, fillcolor="#f4c9aa"] ;
524 -> 525 ;
526 [label=<BEGIN_TIME &le; 1626.0<br/>squared_error = 203.021<br/>samples = 24<br/>value = 44.75>, fillcolor="#f3c6a6"] ;
525 -> 526 ;
527 [label=<CZ_FIPS &le; 172.0<br/>squared_error = 196.022<br/>samples = 19<br/>value = 41.368>, fillcolor="#f4caac"] ;
526 -> 527 ;
528 [label=<DEATHS_DIRECT &le; 6.0<br/>squared_error = 120.595<br/>samples = 17<br/>value = 44.588>, fillcolor="#f3c6a6"] ;
527 -> 528 ;
529 [label=<Unnamed: 0 &le; 3743.5<br/>squared_error = 81.148<br/>samples = 13<br/>value = 48.077>, fillcolor="#f2c29f"] ;
528 -> 529 ;
530 [label=<FATALITY_SEX_M &le; 0.5<br/>squared_error = 62.321<br/>samples = 9<br/>value = 51.889>, fillcolor="#f1bd97"] ;
529 -> 530 ;
531 [label=<MONTH_NAME_September &le; 0.5<br/>squared_error = 1.0<br/>samples = 2<br/>value = 60.0>, fillcolor="#efb387"] ;
530 -> 531 ;
532 [label=<squared_error = 0.0<br/>samples = 1<br/>value = 59.0>, fillcolor="#f0b489"] ;
531 -> 532 ;
533 [label=<squared_error = 0.0<br/>samples = 1<br/>value = 61.0>, fillcolor="#efb185"] ;
531 -> 533 ;
534 [label=<END_TIME &le; 1362.5<br/>squared_error = 55.673<br/>samples = 7<br/>value = 49.571>, fillcolor="#f2c09c"] ;
530 -> 534 ;
535 [label=<Unnamed: 0 &le; 2620.5<br/>squared_error = 22.889<br/>samples = 3<br/>value = 53.667>, fillcolor="#f1bb94"] ;
534 -> 535 ;
536 [label=<squared_error = 0.0<br/>samples = 1<br/>value = 58.0>, fillcolor="#f0b58b"] ;
535 -> 536 ;
537 [label=<CZ_NAME_FORREST &le; 0.5<br/>squared_error = 20.25<br/>samples = 2<br/>value = 51.5>, fillcolor="#f1bd98"] ;
535 -> 537 ;
538 [label=<squared_error = 0.0<br/>samples = 1<br/>value = 56.0>, fillcolor="#f0b88f"] ;
537 -> 538 ;
539 [label=<squared_error = 0.0<br/>samples = 1<br/>value = 47.0>, fillcolor="#f3c3a1"] ;
537 -> 539 ;
540 [label=<FATALITY_ID &le; 33054.0<br/>squared_error = 58.25<br/>samples = 4<br/>value = 46.5>, fillcolor="#f3c4a2"] ;
534 -> 540 ;
541 [label=<CZ_FIPS &le; 61.0<br/>squared_error = 52.667<br/>samples = 3<br/>value = 49.0>, fillcolor="#f2c19d"] ;
540 -> 541 ;
542 [label=<STATE_NEW YORK &le; 0.5<br/>squared_error = 4.0<br/>samples = 2<br/>value = 44.0>, fillcolor="#f3c7a7"] ;
541 -> 542 ;
543 [label=<squared_error = 0.0<br/>samples = 1<br/>value = 42.0>, fillcolor="#f4caab"] ;
542 -> 543 ;
544 [label=<squared_error = 0.0<br/>samples = 1<br/>value = 46.0>, fillcolor="#f3c4a3"] ;
542 -> 544 ;
545 [label=<squared_error = 0.0<br/>samples = 1<br/>value = 59.0>, fillcolor="#f0b489"] ;
541 -> 545 ;
546 [label=<squared_error = 0.0<br/>samples = 1<br/>value = 39.0>, fillcolor="#f5cdb1"] ;
540 -> 546 ;
547 [label=<SOURCE_Law Enforcement &le; 0.5<br/>squared_error = 17.25<br/>samples = 4<br/>value = 39.5>, fillcolor="#f5cdb0"] ;
529 -> 547 ;
548 [label=<EVENT_TYPE_Flash Flood &le; 0.5<br/>squared_error = 4.222<br/>samples = 3<br/>value = 41.667>, fillcolor="#f4caac"] ;
547 -> 548 ;
549 [label=<BEGIN_TIME &le; 629.0<br/>squared_error = 1.0<br/>samples = 2<br/>value = 43.0>, fillcolor="#f4c8a9"] ;
548 -> 549 ;
550 [label=<squared_error = 0.0<br/>samples = 1<br/>value = 42.0>, fillcolor="#f4caab"] ;
549 -> 550 ;
551 [label=<squared_error = 0.0<br/>samples = 1<br/>value = 44.0>, fillcolor="#f3c7a7"] ;
549 -> 551 ;
552 [label=<squared_error = 0.0<br/>samples = 1<br/>value = 39.0>, fillcolor="#f5cdb1"] ;
548 -> 552 ;
553 [label=<squared_error = 0.0<br/>samples = 1<br/>value = 33.0>, fillcolor="#f6d5bd"] ;
547 -> 553 ;
554 [label=<Unnamed: 0 &le; 2871.5<br/>squared_error = 80.688<br/>samples = 4<br/>value = 33.25>, fillcolor="#f6d5bc"] ;
528 -> 554 ;
555 [label=<squared_error = 0.0<br/>samples = 1<br/>value = 18.0>, fillcolor="#fae8db"] ;
554 -> 555 ;
556 [label=<FATALITY_ID &le; 32997.5<br/>squared_error = 4.222<br/>samples = 3<br/>value = 38.333>, fillcolor="#f5ceb2"] ;
554 -> 556 ;
557 [label=<FATALITY_ID &le; 32996.0<br/>squared_error = 2.25<br/>samples = 2<br/>value = 39.5>, fillcolor="#f5cdb0"] ;
556 -> 557 ;
558 [label=<squared_error = 0.0<br/>samples = 1<br/>value = 38.0>, fillcolor="#f5cfb3"] ;
557 -> 558 ;
559 [label=<squared_error = 0.0<br/>samples = 1<br/>value = 41.0>, fillcolor="#f4cbad"] ;
557 -> 559 ;
560 [label=<squared_error = 0.0<br/>samples = 1<br/>value = 36.0>, fillcolor="#f6d1b7"] ;
556 -> 560 ;
561 [label=<squared_error = 0.0<br/>samples = 2<br/>value = 14.0>, fillcolor="#fbede3"] ;
527 -> 561 ;
562 [label=<FATALITY_SEX_F &le; 0.5<br/>squared_error = 21.04<br/>samples = 5<br/>value = 57.6>, fillcolor="#f0b68c"] ;
526 -> 562 ;
563 [label=<SOURCE_NWS Storm Survey &le; 0.5<br/>squared_error = 4.222<br/>samples = 3<br/>value = 54.333>, fillcolor="#f1ba92"] ;
562 -> 563 ;
564 [label=<FAT_YEARMONTH &le; 201654.0<br/>squared_error = 1.0<br/>samples = 2<br/>value = 53.0>, fillcolor="#f1bc95"] ;
563 -> 564 ;
565 [label=<squared_error = 0.0<br/>samples = 1<br/>value = 52.0>, fillcolor="#f1bd97"] ;
564 -> 565 ;
566 [label=<squared_error = 0.0<br/>samples = 1<br/>value = 54.0>, fillcolor="#f1ba93"] ;
564 -> 566 ;
567 [label=<squared_error = 0.0<br/>samples = 1<br/>value = 57.0>, fillcolor="#f0b68d"] ;
563 -> 567 ;
568 [label=<EVENT_TYPE_Flash Flood &le; 0.5<br/>squared_error = 6.25<br/>samples = 2<br/>value = 62.5>, fillcolor="#efaf82"] ;
562 -> 568 ;
569 [label=<squared_error = 0.0<br/>samples = 1<br/>value = 65.0>, fillcolor="#eeac7d"] ;
568 -> 569 ;
570 [label=<squared_error = 0.0<br/>samples = 1<br/>value = 60.0>, fillcolor="#efb387"] ;
568 -> 570 ;
571 [label=<END_DAY &le; 18.0<br/>squared_error = 98.667<br/>samples = 3<br/>value = 26.0>, fillcolor="#f8decb"] ;
525 -> 571 ;
572 [label=<squared_error = 0.0<br/>samples = 1<br/>value = 40.0>, fillcolor="#f4ccaf"] ;
571 -> 572 ;
573 [label=<MONTH_NAME_June &le; 0.5<br/>squared_error = 1.0<br/>samples = 2<br/>value = 19.0>, fillcolor="#fae7d9"] ;
571 -> 573 ;
574 [label=<squared_error = 0.0<br/>samples = 1<br/>value = 18.0>, fillcolor="#fae8db"] ;
573 -> 574 ;
575 [label=<squared_error = 0.0<br/>samples = 1<br/>value = 20.0>, fillcolor="#fae6d7"] ;
573 -> 575 ;
576 [label=<STATE_PENNSYLVANIA &le; 0.5<br/>squared_error = 20.25<br/>samples = 2<br/>value = 14.5>, fillcolor="#fbede2"] ;
524 -> 576 ;
577 [label=<squared_error = 0.0<br/>samples = 1<br/>value = 10.0>, fillcolor="#fcf2eb"] ;
576 -> 577 ;
578 [label=<squared_error = 0.0<br/>samples = 1<br/>value = 19.0>, fillcolor="#fae7d9"] ;
576 -> 578 ;
579 [label=<squared_error = 0.0<br/>samples = 1<br/>value = 2.0>, fillcolor="#fefcfb"] ;
443 -> 579 ;
580 [label=<FATALITY_ID &le; 39290.5<br/>squared_error = 193.139<br/>samples = 6<br/>value = 21.167>, fillcolor="#f9e4d5"] ;
442 -> 580 ;
581 [label=<FATALITY_SEX_F &le; 0.5<br/>squared_error = 32.889<br/>samples = 3<br/>value = 8.333>, fillcolor="#fdf4ee"] ;
580 -> 581 ;
582 [label=<FATALITY_ID &le; 39289.0<br/>squared_error = 9.0<br/>samples = 2<br/>value = 12.0>, fillcolor="#fcf0e7"] ;
581 -> 582 ;
583 [label=<squared_error = 0.0<br/>samples = 1<br/>value = 9.0>, fillcolor="#fdf4ed"] ;
582 -> 583 ;
584 [label=<squared_error = 0.0<br/>samples = 1<br/>value = 15.0>, fillcolor="#fbece1"] ;
582 -> 584 ;
585 [label=<squared_error = 0.0<br/>samples = 1<br/>value = 1.0>, fillcolor="#fffefd"] ;
581 -> 585 ;
586 [label=<DAMAGE_PROPERTY &le; 25000.0<br/>squared_error = 24.0<br/>samples = 3<br/>value = 34.0>, fillcolor="#f6d4bb"] ;
580 -> 586 ;
587 [label=<STATE_TEXAS &le; 0.5<br/>squared_error = 9.0<br/>samples = 2<br/>value = 37.0>, fillcolor="#f5d0b5"] ;
586 -> 587 ;
588 [label=<squared_error = 0.0<br/>samples = 1<br/>value = 40.0>, fillcolor="#f4ccaf"] ;
587 -> 588 ;
589 [label=<squared_error = 0.0<br/>samples = 1<br/>value = 34.0>, fillcolor="#f6d4bb"] ;
587 -> 589 ;
590 [label=<squared_error = 0.0<br/>samples = 1<br/>value = 28.0>, fillcolor="#f8dbc7"] ;
586 -> 590 ;
591 [label=<MONTH_NAME_January &le; 0.5<br/>squared_error = 364.122<br/>samples = 177<br/>value = 51.695>, fillcolor="#f1bd98"] ;
441 -> 591 ;
592 [label=<FAT_YEARMONTH &le; 201904.5<br/>squared_error = 363.703<br/>samples = 167<br/>value = 50.737>, fillcolor="#f2be9a"] ;
591 -> 592 ;
593 [label=<BEGIN_TIME &le; 1215.0<br/>squared_error = 77.449<br/>samples = 15<br/>value = 64.133>, fillcolor="#eead7f"] ;
592 -> 593 ;
594 [label=<Unnamed: 0 &le; 4268.5<br/>squared_error = 37.76<br/>samples = 5<br/>value = 56.8>, fillcolor="#f0b78d"] ;
593 -> 594 ;
595 [label=<FATALITY_SEX_M &le; 0.5<br/>squared_error = 1.0<br/>samples = 2<br/>value = 64.0>, fillcolor="#eeae7f"] ;
594 -> 595 ;
596 [label=<squared_error = 0.0<br/>samples = 1<br/>value = 63.0>, fillcolor="#eeaf81"] ;
595 -> 596 ;
597 [label=<squared_error = 0.0<br/>samples = 1<br/>value = 65.0>, fillcolor="#eeac7d"] ;
595 -> 597 ;
598 [label=<Unnamed: 0 &le; 4269.5<br/>squared_error = 4.667<br/>samples = 3<br/>value = 52.0>, fillcolor="#f1bd97"] ;
594 -> 598 ;
599 [label=<squared_error = 0.0<br/>samples = 1<br/>value = 55.0>, fillcolor="#f1b991"] ;
598 -> 599 ;
600 [label=<EVENT_TYPE_Flash Flood &le; 0.5<br/>squared_error = 0.25<br/>samples = 2<br/>value = 50.5>, fillcolor="#f2bf9a"] ;
598 -> 600 ;
601 [label=<squared_error = 0.0<br/>samples = 1<br/>value = 50.0>, fillcolor="#f2bf9b"] ;
600 -> 601 ;
602 [label=<squared_error = 0.0<br/>samples = 1<br/>value = 51.0>, fillcolor="#f2be99"] ;
600 -> 602 ;
603 [label=<FAT_DAY &le; 24.5<br/>squared_error = 56.96<br/>samples = 10<br/>value = 67.8>, fillcolor="#eda977"] ;
593 -> 603 ;
604 [label=<Unnamed: 0 &le; 4257.5<br/>squared_error = 34.765<br/>samples = 9<br/>value = 66.111>, fillcolor="#eeab7b"] ;
603 -> 604 ;
605 [label=<squared_error = 0.0<br/>samples = 1<br/>value = 53.0>, fillcolor="#f1bc95"] ;
604 -> 605 ;
606 [label=<Unnamed: 0 &le; 4259.0<br/>squared_error = 14.938<br/>samples = 8<br/>value = 67.75>, fillcolor="#eda978"] ;
604 -> 606 ;
607 [label=<squared_error = 0.0<br/>samples = 1<br/>value = 76.0>, fillcolor="#eb9e67"] ;
606 -> 607 ;
608 [label=<FATALITY_ID &le; 39298.5<br/>squared_error = 5.959<br/>samples = 7<br/>value = 66.571>, fillcolor="#eeaa7a"] ;
606 -> 608 ;
609 [label=<FATALITY_ID &le; 39295.5<br/>squared_error = 4.64<br/>samples = 5<br/>value = 65.6>, fillcolor="#eeac7c"] ;
608 -> 609 ;
610 [label=<STATE_MISSOURI &le; 0.5<br/>squared_error = 1.0<br/>samples = 2<br/>value = 68.0>, fillcolor="#eda877"] ;
609 -> 610 ;
611 [label=<squared_error = 0.0<br/>samples = 1<br/>value = 67.0>, fillcolor="#edaa79"] ;
610 -> 611 ;
612 [label=<squared_error = 0.0<br/>samples = 1<br/>value = 69.0>, fillcolor="#eda775"] ;
610 -> 612 ;
613 [label=<FATALITY_ID &le; 39296.5<br/>squared_error = 0.667<br/>samples = 3<br/>value = 64.0>, fillcolor="#eeae7f"] ;
609 -> 613 ;
614 [label=<squared_error = 0.0<br/>samples = 1<br/>value = 65.0>, fillcolor="#eeac7d"] ;
613 -> 614 ;
615 [label=<FATALITY_ID &le; 39297.5<br/>squared_error = 0.25<br/>samples = 2<br/>value = 63.5>, fillcolor="#eeae80"] ;
613 -> 615 ;
616 [label=<squared_error = 0.0<br/>samples = 1<br/>value = 63.0>, fillcolor="#eeaf81"] ;
615 -> 616 ;
617 [label=<squared_error = 0.0<br/>samples = 1<br/>value = 64.0>, fillcolor="#eeae7f"] ;
615 -> 617 ;
618 [label=<Unnamed: 0 &le; 4264.5<br/>squared_error = 1.0<br/>samples = 2<br/>value = 69.0>, fillcolor="#eda775"] ;
608 -> 618 ;
619 [label=<squared_error = 0.0<br/>samples = 1<br/>value = 68.0>, fillcolor="#eda877"] ;
618 -> 619 ;
620 [label=<squared_error = 0.0<br/>samples = 1<br/>value = 70.0>, fillcolor="#eda673"] ;
618 -> 620 ;
621 [label=<squared_error = 0.0<br/>samples = 1<br/>value = 83.0>, fillcolor="#e99559"] ;
603 -> 621 ;
622 [label=<DAMAGE_PROPERTY &le; 5500000.0<br/>squared_error = 372.493<br/>samples = 152<br/>value = 49.414>, fillcolor="#f2c09c"] ;
592 -> 622 ;
623 [label=<FAT_DAY &le; 29.5<br/>squared_error = 387.027<br/>samples = 124<br/>value = 47.194>, fillcolor="#f3c3a1"] ;
622 -> 623 ;
624 [label=<FATALITY_LOCATION_Camping &le; 0.5<br/>squared_error = 370.193<br/>samples = 119<br/>value = 48.261>, fillcolor="#f2c29e"] ;
623 -> 624 ;
625 [label=<Unnamed: 0 &le; 7663.0<br/>squared_error = 344.185<br/>samples = 114<br/>value = 49.246>, fillcolor="#f2c09d"] ;
624 -> 625 ;
626 [label=<CZ_NAME_CRAIGHEAD &le; 0.5<br/>squared_error = 327.021<br/>samples = 108<br/>value = 50.25>, fillcolor="#f2bf9a"] ;
625 -> 626 ;
627 [label=<CZ_NAME_MONTGOMERY &le; 0.5<br/>squared_error = 312.021<br/>samples = 107<br/>value = 49.841>, fillcolor="#f2c09b"] ;
626 -> 627 ;
628 [label=<DAMAGE_PROPERTY &le; 3595000.0<br/>squared_error = 297.113<br/>samples = 104<br/>value = 50.548>, fillcolor="#f2bf9a"] ;
627 -> 628 ;
629 [label=<FATALITY_LOCATION_Under Tree &le; 0.5<br/>squared_error = 276.943<br/>samples = 92<br/>value = 52.054>, fillcolor="#f1bd97"] ;
628 -> 629 ;
630 [label=<EVENT_TYPE_Flash Flood &le; 0.5<br/>squared_error = 242.426<br/>samples = 85<br/>value = 53.388>, fillcolor="#f1bb94"] ;
629 -> 630 ;
631 [label=<CZ_NAME_BRONX &le; 0.5<br/>squared_error = 228.413<br/>samples = 77<br/>value = 55.052>, fillcolor="#f1b991"] ;
630 -> 631 ;
632 [label=<Unnamed: 0 &le; 5345.5<br/>squared_error = 207.844<br/>samples = 76<br/>value = 55.605>, fillcolor="#f0b890"] ;
631 -> 632 ;
633 [label=<Unnamed: 0 &le; 5323.0<br/>squared_error = 182.803<br/>samples = 43<br/>value = 51.814>, fillcolor="#f1bd97"] ;
632 -> 633 ;
634 [label=<WFO_GSP &le; 0.5<br/>squared_error = 166.694<br/>samples = 40<br/>value = 53.175>, fillcolor="#f1bb95"] ;
633 -> 634 ;
635 [label=<CZ_FIPS &le; 6.0<br/>squared_error = 152.84<br/>samples = 37<br/>value = 54.568>, fillcolor="#f1ba92"] ;
634 -> 635 ;
636 [label=<squared_error = 0.0<br/>samples = 1<br/>value = 26.0>, fillcolor="#f8decb"] ;
635 -> 636 ;
637 [label=<WFO_HUN &le; 0.5<br/>squared_error = 133.786<br/>samples = 36<br/>value = 55.361>, fillcolor="#f0b990"] ;
635 -> 637 ;
638 [label=<END_DAY &le; 20.0<br/>squared_error = 124.199<br/>samples = 35<br/>value = 55.971>, fillcolor="#f0b88f"] ;
637 -> 638 ;
639 [label=<MONTH_NAME_May &le; 0.5<br/>squared_error = 143.914<br/>samples = 25<br/>value = 58.08>, fillcolor="#f0b58b"] ;
638 -> 639 ;
640 [label=<WFO_DMX &le; 0.5<br/>squared_error = 136.578<br/>samples = 23<br/>value = 56.826>, fillcolor="#f0b78d"] ;
639 -> 640 ;
641 [label=<BEGIN_TIME &le; 2077.5<br/>squared_error = 130.884<br/>samples = 22<br/>value = 57.545>, fillcolor="#f0b68c"] ;
640 -> 641 ;
642 [label=<Unnamed: 0 &le; 5169.5<br/>squared_error = 130.528<br/>samples = 20<br/>value = 58.65>, fillcolor="#f0b48a"] ;
641 -> 642 ;
643 [label=<Unnamed: 0 &le; 5166.5<br/>squared_error = 160.691<br/>samples = 9<br/>value = 54.556>, fillcolor="#f1ba92"] ;
642 -> 643 ;
644 [label=<END_TIME &le; 821.5<br/>squared_error = 0.556<br/>samples = 6<br/>value = 59.667>, fillcolor="#efb388"] ;
643 -> 644 ;
645 [label=<squared_error = 0.0<br/>samples = 1<br/>value = 61.0>, fillcolor="#efb185"] ;
644 -> 645 ;
646 [label=<FATALITY_LOCATION_Mobile/Trailer Home &le; 0.5<br/>squared_error = 0.24<br/>samples = 5<br/>value = 59.4>, fillcolor="#efb388"] ;
644 -> 646 ;
647 [label=<FATALITY_ID &le; 39860.0<br/>squared_error = 0.222<br/>samples = 3<br/>value = 59.667>, fillcolor="#efb388"] ;
646 -> 647 ;
648 [label=<squared_error = 0.0<br/>samples = 1<br/>value = 59.0>, fillcolor="#f0b489"] ;
647 -> 648 ;
649 [label=<squared_error = 0.0<br/>samples = 2<br/>value = 60.0>, fillcolor="#efb387"] ;
647 -> 649 ;
650 [label=<squared_error = 0.0<br/>samples = 2<br/>value = 59.0>, fillcolor="#f0b489"] ;
646 -> 650 ;
651 [label=<Unnamed: 0 &le; 5167.5<br/>squared_error = 324.222<br/>samples = 3<br/>value = 44.333>, fillcolor="#f3c7a6"] ;
643 -> 651 ;
652 [label=<squared_error = 0.0<br/>samples = 1<br/>value = 20.0>, fillcolor="#fae6d7"] ;
651 -> 652 ;
653 [label=<FATALITY_ID &le; 41066.5<br/>squared_error = 42.25<br/>samples = 2<br/>value = 56.5>, fillcolor="#f0b78e"] ;
651 -> 653 ;
654 [label=<squared_error = 0.0<br/>samples = 1<br/>value = 63.0>, fillcolor="#eeaf81"] ;
653 -> 654 ;
655 [label=<squared_error = 0.0<br/>samples = 1<br/>value = 50.0>, fillcolor="#f2bf9b"] ;
653 -> 655 ;
656 [label=<Unnamed: 0 &le; 5171.5<br/>squared_error = 80.909<br/>samples = 11<br/>value = 62.0>, fillcolor="#efb083"] ;
642 -> 656 ;
657 [label=<Unnamed: 0 &le; 5170.5<br/>squared_error = 4.0<br/>samples = 2<br/>value = 77.0>, fillcolor="#eb9d65"] ;
656 -> 657 ;
658 [label=<squared_error = 0.0<br/>samples = 1<br/>value = 79.0>, fillcolor="#ea9a61"] ;
657 -> 658 ;
659 [label=<squared_error = 0.0<br/>samples = 1<br/>value = 75.0>, fillcolor="#eba069"] ;
657 -> 659 ;
660 [label=<INJURIES_DIRECT &le; 1.5<br/>squared_error = 36.889<br/>samples = 9<br/>value = 58.667>, fillcolor="#f0b48a"] ;
656 -> 660 ;
661 [label=<DAMAGE_PROPERTY &le; 200000.0<br/>squared_error = 17.556<br/>samples = 3<br/>value = 65.333>, fillcolor="#eeac7c"] ;
660 -> 661 ;
662 [label=<EVENT_TYPE_Thunderstorm Wind &le; 0.5<br/>squared_error = 2.25<br/>samples = 2<br/>value = 62.5>, fillcolor="#efaf82"] ;
661 -> 662 ;
663 [label=<squared_error = 0.0<br/>samples = 1<br/>value = 64.0>, fillcolor="#eeae7f"] ;
662 -> 663 ;
664 [label=<squared_error = 0.0<br/>samples = 1<br/>value = 61.0>, fillcolor="#efb185"] ;
662 -> 664 ;
665 [label=<squared_error = 0.0<br/>samples = 1<br/>value = 71.0>, fillcolor="#eca571"] ;
661 -> 665 ;
666 [label=<FATALITY_ID &le; 41070.5<br/>squared_error = 13.222<br/>samples = 6<br/>value = 55.333>, fillcolor="#f0b990"] ;
660 -> 666 ;
667 [label=<squared_error = 0.0<br/>samples = 1<br/>value = 48.0>, fillcolor="#f2c29f"] ;
666 -> 667 ;
668 [label=<FATALITY_ID &le; 41843.5<br/>squared_error = 2.96<br/>samples = 5<br/>value = 56.8>, fillcolor="#f0b78d"] ;
666 -> 668 ;
669 [label=<INJURIES_DIRECT &le; 13.5<br/>squared_error = 2.25<br/>samples = 2<br/>value = 58.5>, fillcolor="#f0b58a"] ;
668 -> 669 ;
670 [label=<squared_error = 0.0<br/>samples = 1<br/>value = 60.0>, fillcolor="#efb387"] ;
669 -> 670 ;
671 [label=<squared_error = 0.0<br/>samples = 1<br/>value = 57.0>, fillcolor="#f0b68d"] ;
669 -> 671 ;
672 [label=<END_TIME &le; 994.0<br/>squared_error = 0.222<br/>samples = 3<br/>value = 55.667>, fillcolor="#f0b890"] ;
668 -> 672 ;
673 [label=<squared_error = 0.0<br/>samples = 2<br/>value = 56.0>, fillcolor="#f0b88f"] ;
672 -> 673 ;
674 [label=<squared_error = 0.0<br/>samples = 1<br/>value = 55.0>, fillcolor="#f1b991"] ;
672 -> 674 ;
675 [label=<FATALITY_SEX_F &le; 0.5<br/>squared_error = 0.25<br/>samples = 2<br/>value = 46.5>, fillcolor="#f3c4a2"] ;
641 -> 675 ;
676 [label=<squared_error = 0.0<br/>samples = 1<br/>value = 46.0>, fillcolor="#f3c4a3"] ;
675 -> 676 ;
677 [label=<squared_error = 0.0<br/>samples = 1<br/>value = 47.0>, fillcolor="#f3c3a1"] ;
675 -> 677 ;
678 [label=<squared_error = 0.0<br/>samples = 1<br/>value = 41.0>, fillcolor="#f4cbad"] ;
640 -> 678 ;
679 [label=<EVENT_TYPE_Thunderstorm Wind &le; 0.5<br/>squared_error = 2.25<br/>samples = 2<br/>value = 72.5>, fillcolor="#eca36e"] ;
639 -> 679 ;
680 [label=<squared_error = 0.0<br/>samples = 1<br/>value = 74.0>, fillcolor="#eca16b"] ;
679 -> 680 ;
681 [label=<squared_error = 0.0<br/>samples = 1<br/>value = 71.0>, fillcolor="#eca571"] ;
679 -> 681 ;
682 [label=<Unnamed: 0 &le; 5018.5<br/>squared_error = 36.01<br/>samples = 10<br/>value = 50.7>, fillcolor="#f2be9a"] ;
638 -> 682 ;
683 [label=<WFO_MEG &le; 0.5<br/>squared_error = 17.84<br/>samples = 5<br/>value = 55.6>, fillcolor="#f0b890"] ;
682 -> 683 ;
684 [label=<FAT_DAY &le; 16.0<br/>squared_error = 5.188<br/>samples = 4<br/>value = 53.75>, fillcolor="#f1bb94"] ;
683 -> 684 ;
685 [label=<squared_error = 0.0<br/>samples = 1<br/>value = 50.0>, fillcolor="#f2bf9b"] ;
684 -> 685 ;
686 [label=<Unnamed: 0 &le; 4688.5<br/>squared_error = 0.667<br/>samples = 3<br/>value = 55.0>, fillcolor="#f1b991"] ;
684 -> 686 ;
687 [label=<squared_error = 0.0<br/>samples = 1<br/>value = 56.0>, fillcolor="#f0b88f"] ;
686 -> 687 ;
688 [label=<WFO_OUN &le; 0.5<br/>squared_error = 0.25<br/>samples = 2<br/>value = 54.5>, fillcolor="#f1ba92"] ;
686 -> 688 ;
689 [label=<squared_error = 0.0<br/>samples = 1<br/>value = 55.0>, fillcolor="#f1b991"] ;
688 -> 689 ;
690 [label=<squared_error = 0.0<br/>samples = 1<br/>value = 54.0>, fillcolor="#f1ba93"] ;
688 -> 690 ;
691 [label=<squared_error = 0.0<br/>samples = 1<br/>value = 63.0>, fillcolor="#eeaf81"] ;
683 -> 691 ;
692 [label=<WFO_MLB &le; 0.5<br/>squared_error = 6.16<br/>samples = 5<br/>value = 45.8>, fillcolor="#f3c5a3"] ;
682 -> 692 ;
693 [label=<BEGIN_TIME &le; 787.5<br/>squared_error = 0.5<br/>samples = 4<br/>value = 47.0>, fillcolor="#f3c3a1"] ;
692 -> 693 ;
694 [label=<squared_error = 0.0<br/>samples = 1<br/>value = 48.0>, fillcolor="#f2c29f"] ;
693 -> 694 ;
695 [label=<FATALITY_LOCATION_Outside/Open Areas &le; 0.5<br/>squared_error = 0.222<br/>samples = 3<br/>value = 46.667>, fillcolor="#f3c4a2"] ;
693 -> 695 ;
696 [label=<squared_error = 0.0<br/>samples = 2<br/>value = 47.0>, fillcolor="#f3c3a1"] ;
695 -> 696 ;
697 [label=<squared_error = 0.0<br/>samples = 1<br/>value = 46.0>, fillcolor="#f3c4a3"] ;
695 -> 697 ;
698 [label=<squared_error = 0.0<br/>samples = 1<br/>value = 41.0>, fillcolor="#f4cbad"] ;
692 -> 698 ;
699 [label=<squared_error = 0.0<br/>samples = 1<br/>value = 34.0>, fillcolor="#f6d4bb"] ;
637 -> 699 ;
700 [label=<CZ_FIPS &le; 74.0<br/>squared_error = 18.667<br/>samples = 3<br/>value = 36.0>, fillcolor="#f6d1b7"] ;
634 -> 700 ;
701 [label=<FATALITY_SEX_M &le; 0.5<br/>squared_error = 1.0<br/>samples = 2<br/>value = 33.0>, fillcolor="#f6d5bd"] ;
700 -> 701 ;
702 [label=<squared_error = 0.0<br/>samples = 1<br/>value = 34.0>, fillcolor="#f6d4bb"] ;
701 -> 702 ;
703 [label=<squared_error = 0.0<br/>samples = 1<br/>value = 32.0>, fillcolor="#f7d6bf"] ;
701 -> 703 ;
704 [label=<squared_error = 0.0<br/>samples = 1<br/>value = 42.0>, fillcolor="#f4caab"] ;
700 -> 704 ;
705 [label=<FATALITY_ID &le; 41931.5<br/>squared_error = 43.556<br/>samples = 3<br/>value = 33.667>, fillcolor="#f6d4bc"] ;
633 -> 705 ;
706 [label=<squared_error = 0.0<br/>samples = 1<br/>value = 41.0>, fillcolor="#f4cbad"] ;
705 -> 706 ;
707 [label=<WFO_CHS &le; 0.5<br/>squared_error = 25.0<br/>samples = 2<br/>value = 30.0>, fillcolor="#f7d9c3"] ;
705 -> 707 ;
708 [label=<squared_error = 0.0<br/>samples = 1<br/>value = 35.0>, fillcolor="#f6d2b9"] ;
707 -> 708 ;
709 [label=<squared_error = 0.0<br/>samples = 1<br/>value = 25.0>, fillcolor="#f8dfcd"] ;
707 -> 709 ;
710 [label=<STATE_PENNSYLVANIA &le; 0.5<br/>squared_error = 197.339<br/>samples = 33<br/>value = 60.545>, fillcolor="#efb286"] ;
632 -> 710 ;
711 [label=<Unnamed: 0 &le; 7630.5<br/>squared_error = 169.371<br/>samples = 32<br/>value = 61.562>, fillcolor="#efb184"] ;
710 -> 711 ;
712 [label=<Unnamed: 0 &le; 5985.5<br/>squared_error = 147.579<br/>samples = 30<br/>value = 60.233>, fillcolor="#efb287"] ;
711 -> 712 ;
713 [label=<STATE_MISSISSIPPI &le; 0.5<br/>squared_error = 85.408<br/>samples = 13<br/>value = 64.769>, fillcolor="#eead7d"] ;
712 -> 713 ;
714 [label=<END_TIME &le; 1359.0<br/>squared_error = 37.139<br/>samples = 12<br/>value = 66.833>, fillcolor="#edaa79"] ;
713 -> 714 ;
715 [label=<EPISODE_ID &le; 148834.5<br/>squared_error = 26.96<br/>samples = 5<br/>value = 61.2>, fillcolor="#efb185"] ;
714 -> 715 ;
716 [label=<FATALITY_SEX_F &le; 0.5<br/>squared_error = 6.25<br/>samples = 2<br/>value = 65.5>, fillcolor="#eeac7c"] ;
715 -> 716 ;
717 [label=<squared_error = 0.0<br/>samples = 1<br/>value = 63.0>, fillcolor="#eeaf81"] ;
716 -> 717 ;
718 [label=<squared_error = 0.0<br/>samples = 1<br/>value = 68.0>, fillcolor="#eda877"] ;
716 -> 718 ;
719 [label=<FATALITY_ID &le; 41403.5<br/>squared_error = 20.222<br/>samples = 3<br/>value = 58.333>, fillcolor="#f0b58a"] ;
715 -> 719 ;
720 [label=<EPISODE_ID &le; 151449.0<br/>squared_error = 0.25<br/>samples = 2<br/>value = 61.5>, fillcolor="#efb184"] ;
719 -> 720 ;
721 [label=<squared_error = 0.0<br/>samples = 1<br/>value = 61.0>, fillcolor="#efb185"] ;
720 -> 721 ;
722 [label=<squared_error = 0.0<br/>samples = 1<br/>value = 62.0>, fillcolor="#efb083"] ;
720 -> 722 ;
723 [label=<squared_error = 0.0<br/>samples = 1<br/>value = 52.0>, fillcolor="#f1bd97"] ;
719 -> 723 ;
724 [label=<BEGIN_TIME &le; 2075.0<br/>squared_error = 5.551<br/>samples = 7<br/>value = 70.857>, fillcolor="#eca571"] ;
714 -> 724 ;
725 [label=<FATALITY_ID &le; 42864.5<br/>squared_error = 3.583<br/>samples = 6<br/>value = 71.5>, fillcolor="#eca470"] ;
724 -> 725 ;
726 [label=<FATALITY_LOCATION_Mobile/Trailer Home &le; 0.5<br/>squared_error = 2.25<br/>samples = 4<br/>value = 72.5>, fillcolor="#eca36e"] ;
725 -> 726 ;
727 [label=<squared_error = 0.0<br/>samples = 2<br/>value = 71.0>, fillcolor="#eca571"] ;
726 -> 727 ;
728 [label=<squared_error = 0.0<br/>samples = 2<br/>value = 74.0>, fillcolor="#eca16b"] ;
726 -> 728 ;
729 [label=<MONTH_NAME_March &le; 0.5<br/>squared_error = 0.25<br/>samples = 2<br/>value = 69.5>, fillcolor="#eda774"] ;
725 -> 729 ;
730 [label=<squared_error = 0.0<br/>samples = 1<br/>value = 70.0>, fillcolor="#eda673"] ;
729 -> 730 ;
731 [label=<squared_error = 0.0<br/>samples = 1<br/>value = 69.0>, fillcolor="#eda775"] ;
729 -> 731 ;
732 [label=<squared_error = 0.0<br/>samples = 1<br/>value = 67.0>, fillcolor="#edaa79"] ;
724 -> 732 ;
733 [label=<squared_error = 0.0<br/>samples = 1<br/>value = 40.0>, fillcolor="#f4ccaf"] ;
713 -> 733 ;
734 [label=<Unnamed: 0 &le; 6838.5<br/>squared_error = 167.356<br/>samples = 17<br/>value = 56.765>, fillcolor="#f0b78d"] ;
712 -> 734 ;
735 [label=<CZ_NAME_CLAYTON &le; 0.5<br/>squared_error = 85.234<br/>samples = 8<br/>value = 51.375>, fillcolor="#f2be98"] ;
734 -> 735 ;
736 [label=<STATE_MISSISSIPPI &le; 0.5<br/>squared_error = 67.102<br/>samples = 7<br/>value = 49.429>, fillcolor="#f2c09c"] ;
735 -> 736 ;
737 [label=<FATALITY_ID &le; 42866.5<br/>squared_error = 47.556<br/>samples = 6<br/>value = 47.333>, fillcolor="#f3c3a0"] ;
736 -> 737 ;
738 [label=<squared_error = 0.0<br/>samples = 1<br/>value = 38.0>, fillcolor="#f5cfb3"] ;
737 -> 738 ;
739 [label=<CZ_NAME_CALHOUN &le; 0.5<br/>squared_error = 36.16<br/>samples = 5<br/>value = 49.2>, fillcolor="#f2c09d"] ;
737 -> 739 ;
740 [label=<CZ_TIMEZONE_CST-6 &le; 0.5<br/>squared_error = 15.188<br/>samples = 4<br/>value = 46.75>, fillcolor="#f3c4a2"] ;
739 -> 740 ;
741 [label=<squared_error = 0.0<br/>samples = 1<br/>value = 40.0>, fillcolor="#f4ccaf"] ;
740 -> 741 ;
742 [label=<squared_error = 0.0<br/>samples = 3<br/>value = 49.0>, fillcolor="#f2c19d"] ;
740 -> 742 ;
743 [label=<squared_error = 0.0<br/>samples = 1<br/>value = 59.0>, fillcolor="#f0b489"] ;
739 -> 743 ;
744 [label=<squared_error = 0.0<br/>samples = 1<br/>value = 62.0>, fillcolor="#efb083"] ;
736 -> 744 ;
745 [label=<squared_error = 0.0<br/>samples = 1<br/>value = 65.0>, fillcolor="#eeac7d"] ;
735 -> 745 ;
746 [label=<FATALITY_ID &le; 46507.5<br/>squared_error = 191.58<br/>samples = 9<br/>value = 61.556>, fillcolor="#efb184"] ;
734 -> 746 ;
747 [label=<END_DAY &le; 8.0<br/>squared_error = 43.76<br/>samples = 5<br/>value = 68.2>, fillcolor="#eda877"] ;
746 -> 747 ;
748 [label=<FATALITY_SEX_F &le; 0.5<br/>squared_error = 0.25<br/>samples = 2<br/>value = 75.5>, fillcolor="#eb9f68"] ;
747 -> 748 ;
749 [label=<squared_error = 0.0<br/>samples = 1<br/>value = 76.0>, fillcolor="#eb9e67"] ;
748 -> 749 ;
750 [label=<squared_error = 0.0<br/>samples = 1<br/>value = 75.0>, fillcolor="#eba069"] ;
748 -> 750 ;
751 [label=<WFO_GSP &le; 0.5<br/>squared_error = 13.556<br/>samples = 3<br/>value = 63.333>, fillcolor="#eeae80"] ;
747 -> 751 ;
752 [label=<SOURCE_County Official &le; 0.5<br/>squared_error = 4.0<br/>samples = 2<br/>value = 61.0>, fillcolor="#efb185"] ;
751 -> 752 ;
753 [label=<squared_error = 0.0<br/>samples = 1<br/>value = 63.0>, fillcolor="#eeaf81"] ;
752 -> 753 ;
754 [label=<squared_error = 0.0<br/>samples = 1<br/>value = 59.0>, fillcolor="#f0b489"] ;
752 -> 754 ;
755 [label=<squared_error = 0.0<br/>samples = 1<br/>value = 68.0>, fillcolor="#eda877"] ;
751 -> 755 ;
756 [label=<FATALITY_ID &le; 46600.0<br/>squared_error = 252.188<br/>samples = 4<br/>value = 53.25>, fillcolor="#f1bb94"] ;
746 -> 756 ;
757 [label=<squared_error = 0.0<br/>samples = 1<br/>value = 29.0>, fillcolor="#f7dac5"] ;
756 -> 757 ;
758 [label=<FAT_DAY &le; 12.5<br/>squared_error = 74.889<br/>samples = 3<br/>value = 61.333>, fillcolor="#efb184"] ;
756 -> 758 ;
759 [label=<DEATHS_DIRECT &le; 0.5<br/>squared_error = 16.0<br/>samples = 2<br/>value = 67.0>, fillcolor="#edaa79"] ;
758 -> 759 ;
760 [label=<squared_error = 0.0<br/>samples = 1<br/>value = 71.0>, fillcolor="#eca571"] ;
759 -> 760 ;
761 [label=<squared_error = 0.0<br/>samples = 1<br/>value = 63.0>, fillcolor="#eeaf81"] ;
759 -> 761 ;
762 [label=<squared_error = 0.0<br/>samples = 1<br/>value = 50.0>, fillcolor="#f2bf9b"] ;
758 -> 762 ;
763 [label=<STATE_TEXAS &le; 0.5<br/>squared_error = 72.25<br/>samples = 2<br/>value = 81.5>, fillcolor="#ea975c"] ;
711 -> 763 ;
764 [label=<squared_error = 0.0<br/>samples = 1<br/>value = 90.0>, fillcolor="#e78c4b"] ;
763 -> 764 ;
765 [label=<squared_error = 0.0<br/>samples = 1<br/>value = 73.0>, fillcolor="#eca26d"] ;
763 -> 765 ;
766 [label=<squared_error = 0.0<br/>samples = 1<br/>value = 28.0>, fillcolor="#f8dbc7"] ;
710 -> 766 ;
767 [label=<squared_error = 0.0<br/>samples = 1<br/>value = 13.0>, fillcolor="#fceee5"] ;
631 -> 767 ;
768 [label=<BEGIN_TIME &le; 1618.5<br/>squared_error = 94.234<br/>samples = 8<br/>value = 37.375>, fillcolor="#f5cfb4"] ;
630 -> 768 ;
769 [label=<SOURCE_Newspaper &le; 0.5<br/>squared_error = 42.333<br/>samples = 6<br/>value = 33.0>, fillcolor="#f6d5bd"] ;
768 -> 769 ;
770 [label=<BEGIN_TIME &le; 1120.0<br/>squared_error = 21.76<br/>samples = 5<br/>value = 30.8>, fillcolor="#f7d8c1"] ;
769 -> 770 ;
771 [label=<Unnamed: 0 &le; 4660.5<br/>squared_error = 24.222<br/>samples = 3<br/>value = 28.667>, fillcolor="#f7dbc6"] ;
770 -> 771 ;
772 [label=<squared_error = 0.0<br/>samples = 1<br/>value = 35.0>, fillcolor="#f6d2b9"] ;
771 -> 772 ;
773 [label=<FATALITY_SEX_F &le; 0.5<br/>squared_error = 6.25<br/>samples = 2<br/>value = 25.5>, fillcolor="#f8dfcc"] ;
771 -> 773 ;
774 [label=<squared_error = 0.0<br/>samples = 1<br/>value = 23.0>, fillcolor="#f9e2d1"] ;
773 -> 774 ;
775 [label=<squared_error = 0.0<br/>samples = 1<br/>value = 28.0>, fillcolor="#f8dbc7"] ;
773 -> 775 ;
776 [label=<FATALITY_LOCATION_Other &le; 0.5<br/>squared_error = 1.0<br/>samples = 2<br/>value = 34.0>, fillcolor="#f6d4bb"] ;
770 -> 776 ;
777 [label=<squared_error = 0.0<br/>samples = 1<br/>value = 33.0>, fillcolor="#f6d5bd"] ;
776 -> 777 ;
778 [label=<squared_error = 0.0<br/>samples = 1<br/>value = 35.0>, fillcolor="#f6d2b9"] ;
776 -> 778 ;
779 [label=<squared_error = 0.0<br/>samples = 1<br/>value = 44.0>, fillcolor="#f3c7a7"] ;
769 -> 779 ;
780 [label=<YEAR &le; 2020.0<br/>squared_error = 20.25<br/>samples = 2<br/>value = 50.5>, fillcolor="#f2bf9a"] ;
768 -> 780 ;
781 [label=<squared_error = 0.0<br/>samples = 1<br/>value = 55.0>, fillcolor="#f1b991"] ;
780 -> 781 ;
782 [label=<squared_error = 0.0<br/>samples = 1<br/>value = 46.0>, fillcolor="#f3c4a3"] ;
780 -> 782 ;
783 [label=<WFO_ARX &le; 0.5<br/>squared_error = 412.122<br/>samples = 7<br/>value = 35.857>, fillcolor="#f6d1b7"] ;
629 -> 783 ;
784 [label=<SOURCE_Emergency Manager &le; 0.5<br/>squared_error = 315.667<br/>samples = 6<br/>value = 31.0>, fillcolor="#f7d8c1"] ;
783 -> 784 ;
785 [label=<CZ_FIPS &le; 34.0<br/>squared_error = 2.667<br/>samples = 3<br/>value = 14.0>, fillcolor="#fbede3"] ;
784 -> 785 ;
786 [label=<squared_error = 0.0<br/>samples = 1<br/>value = 12.0>, fillcolor="#fcf0e7"] ;
785 -> 786 ;
787 [label=<EVENT_TYPE_Lightning &le; 0.5<br/>squared_error = 1.0<br/>samples = 2<br/>value = 15.0>, fillcolor="#fbece1"] ;
785 -> 787 ;
788 [label=<squared_error = 0.0<br/>samples = 1<br/>value = 14.0>, fillcolor="#fbede3"] ;
787 -> 788 ;
789 [label=<squared_error = 0.0<br/>samples = 1<br/>value = 16.0>, fillcolor="#fbebdf"] ;
787 -> 789 ;
790 [label=<BEGIN_TIME &le; 1262.5<br/>squared_error = 50.667<br/>samples = 3<br/>value = 48.0>, fillcolor="#f2c29f"] ;
784 -> 790 ;
791 [label=<squared_error = 0.0<br/>samples = 1<br/>value = 58.0>, fillcolor="#f0b58b"] ;
790 -> 791 ;
792 [label=<BEGIN_TIME &le; 1315.0<br/>squared_error = 1.0<br/>samples = 2<br/>value = 43.0>, fillcolor="#f4c8a9"] ;
790 -> 792 ;
793 [label=<squared_error = 0.0<br/>samples = 1<br/>value = 44.0>, fillcolor="#f3c7a7"] ;
792 -> 793 ;
794 [label=<squared_error = 0.0<br/>samples = 1<br/>value = 42.0>, fillcolor="#f4caab"] ;
792 -> 794 ;
795 [label=<squared_error = 0.0<br/>samples = 1<br/>value = 65.0>, fillcolor="#eeac7d"] ;
783 -> 795 ;
796 [label=<EVENT_TYPE_Tornado &le; 0.5<br/>squared_error = 301.0<br/>samples = 12<br/>value = 39.0>, fillcolor="#f5cdb1"] ;
628 -> 796 ;
797 [label=<squared_error = 0.0<br/>samples = 1<br/>value = 77.0>, fillcolor="#eb9d65"] ;
796 -> 797 ;
798 [label=<Unnamed: 0 &le; 6363.5<br/>squared_error = 185.157<br/>samples = 11<br/>value = 35.545>, fillcolor="#f6d2b8"] ;
796 -> 798 ;
799 [label=<Unnamed: 0 &le; 5076.5<br/>squared_error = 0.667<br/>samples = 3<br/>value = 28.0>, fillcolor="#f8dbc7"] ;
798 -> 799 ;
800 [label=<squared_error = 0.0<br/>samples = 1<br/>value = 29.0>, fillcolor="#f7dac5"] ;
799 -> 800 ;
801 [label=<Unnamed: 0 &le; 5720.0<br/>squared_error = 0.25<br/>samples = 2<br/>value = 27.5>, fillcolor="#f8dcc8"] ;
799 -> 801 ;
802 [label=<squared_error = 0.0<br/>samples = 1<br/>value = 27.0>, fillcolor="#f8ddc9"] ;
801 -> 802 ;
803 [label=<squared_error = 0.0<br/>samples = 1<br/>value = 28.0>, fillcolor="#f8dbc7"] ;
801 -> 803 ;
804 [label=<FATALITY_ID &le; 45650.5<br/>squared_error = 224.984<br/>samples = 8<br/>value = 38.375>, fillcolor="#f5ceb2"] ;
798 -> 804 ;
805 [label=<squared_error = 0.0<br/>samples = 1<br/>value = 62.0>, fillcolor="#efb083"] ;
804 -> 805 ;
806 [label=<Unnamed: 0 &le; 7345.5<br/>squared_error = 166.0<br/>samples = 7<br/>value = 35.0>, fillcolor="#f6d2b9"] ;
804 -> 806 ;
807 [label=<FATALITY_ID &le; 45877.5<br/>squared_error = 160.806<br/>samples = 6<br/>value = 32.833>, fillcolor="#f6d5bd"] ;
806 -> 807 ;
808 [label=<INJURIES_DIRECT &le; 0.5<br/>squared_error = 88.8<br/>samples = 5<br/>value = 37.0>, fillcolor="#f5d0b5"] ;
807 -> 808 ;
809 [label=<squared_error = 0.0<br/>samples = 1<br/>value = 50.0>, fillcolor="#f2bf9b"] ;
808 -> 809 ;
810 [label=<Unnamed: 0 &le; 6367.5<br/>squared_error = 58.188<br/>samples = 4<br/>value = 33.75>, fillcolor="#f6d4bc"] ;
808 -> 810 ;
811 [label=<FATALITY_ID &le; 45652.5<br/>squared_error = 50.889<br/>samples = 3<br/>value = 36.333>, fillcolor="#f5d1b6"] ;
810 -> 811 ;
812 [label=<Unnamed: 0 &le; 6365.5<br/>squared_error = 6.25<br/>samples = 2<br/>value = 31.5>, fillcolor="#f7d7c0"] ;
811 -> 812 ;
813 [label=<squared_error = 0.0<br/>samples = 1<br/>value = 29.0>, fillcolor="#f7dac5"] ;
812 -> 813 ;
814 [label=<squared_error = 0.0<br/>samples = 1<br/>value = 34.0>, fillcolor="#f6d4bb"] ;
812 -> 814 ;
815 [label=<squared_error = 0.0<br/>samples = 1<br/>value = 46.0>, fillcolor="#f3c4a3"] ;
811 -> 815 ;
816 [label=<squared_error = 0.0<br/>samples = 1<br/>value = 26.0>, fillcolor="#f8decb"] ;
810 -> 816 ;
817 [label=<squared_error = 0.0<br/>samples = 1<br/>value = 12.0>, fillcolor="#fcf0e7"] ;
807 -> 817 ;
818 [label=<squared_error = 0.0<br/>samples = 1<br/>value = 48.0>, fillcolor="#f2c29f"] ;
806 -> 818 ;
819 [label=<MONTH_NAME_August &le; 0.5<br/>squared_error = 210.889<br/>samples = 3<br/>value = 25.333>, fillcolor="#f8dfcc"] ;
627 -> 819 ;
820 [label=<FATALITY_ID &le; 40344.5<br/>squared_error = 6.25<br/>samples = 2<br/>value = 35.5>, fillcolor="#f6d2b8"] ;
819 -> 820 ;
821 [label=<squared_error = 0.0<br/>samples = 1<br/>value = 33.0>, fillcolor="#f6d5bd"] ;
820 -> 821 ;
822 [label=<squared_error = 0.0<br/>samples = 1<br/>value = 38.0>, fillcolor="#f5cfb3"] ;
820 -> 822 ;
823 [label=<squared_error = 0.0<br/>samples = 1<br/>value = 5.0>, fillcolor="#fef9f5"] ;
819 -> 823 ;
824 [label=<squared_error = 0.0<br/>samples = 1<br/>value = 94.0>, fillcolor="#e68743"] ;
626 -> 824 ;
